%YAML:1.0
---
opencv_ml_svm:
   format: 3
   svmType: C_SVC
   kernel:
      type: RBF
      gamma: 5.0624999999999998e-01
   C: 1.2500000000000000e+01
   term_criteria: { epsilon:1.1920928955078125e-07, iterations:1000 }
   var_count: 324
   class_count: 6
   class_labels: !!opencv-matrix
      rows: 6
      cols: 1
      dt: i
      data: [ 0, 1, 2, 3, 4, 5 ]
   sv_total: 386
   support_vectors:
      - [ 3.45789790e-01, 3.45789790e-01, 3.45789790e-01, 3.45789790e-01,
          3.45789790e-01, 3.45789790e-01, 3.13451201e-01, 2.47587085e-01,
          3.45789790e-01, 3.55676472e-01, 3.55676472e-01, 3.00455987e-01,
          1.43639892e-01, 3.55676472e-01, 3.55676472e-01, 3.55676472e-01,
          3.55676472e-01, 3.55676472e-01, 3.15533042e-01, 3.34868103e-01,
          3.34868103e-01, 3.34868103e-01, 3.34868103e-01, 3.34868103e-01,
          3.34868103e-01, 3.34868103e-01, 3.34868103e-01, 3.08137089e-01,
          3.61984104e-01, 3.61984104e-01, 3.61984104e-01, 3.61984104e-01,
          3.61984104e-01, 3.61984104e-01, 1.49405062e-01, 3.04824650e-01,
          2.08340660e-01, 3.55193526e-01, 3.55193526e-01, 2.64402002e-01,
          3.55193526e-01, 3.55193526e-01, 3.55193526e-01, 3.55193526e-01,
          3.55193526e-01, 3.46824527e-01, 3.30840468e-01, 1.73341408e-01,
          3.62461746e-01, 3.43956381e-01, 3.62461746e-01, 3.62461746e-01,
          3.62461746e-01, 3.04579526e-01, 3.44584435e-01, 3.44584435e-01,
          3.44584435e-01, 3.44584435e-01, 3.44584435e-01, 2.74306536e-01,
          3.00240010e-01, 3.44584435e-01, 3.44584435e-01, 3.39445859e-01,
          3.39445859e-01, 3.39445859e-01, 3.39445859e-01, 3.39445859e-01,
          3.39445859e-01, 3.39445859e-01, 3.10718596e-01, 3.05774182e-01,
          3.62340301e-01, 3.62340301e-01, 2.55653143e-01, 3.62340301e-01,
          2.02058449e-01, 3.62340301e-01, 3.20079327e-01, 3.62340301e-01,
          3.62340301e-01, 3.44584435e-01, 3.44584435e-01, 3.44584435e-01,
          3.44584435e-01, 3.44584435e-01, 2.74306536e-01, 3.00240010e-01,
          3.44584435e-01, 3.44584435e-01, 3.39445859e-01, 3.39445859e-01,
          3.39445859e-01, 3.39445859e-01, 3.39445859e-01, 3.39445859e-01,
          3.39445859e-01, 3.10718596e-01, 3.05774182e-01, 3.62340301e-01,
          3.62340301e-01, 2.55653143e-01, 3.62340301e-01, 2.02058449e-01,
          3.62340301e-01, 3.20079327e-01, 3.62340301e-01, 3.62340301e-01,
          3.43448132e-01, 3.43448132e-01, 3.43448132e-01, 3.43448132e-01,
          3.43448132e-01, 3.43448132e-01, 2.30033785e-01, 3.43448132e-01,
          3.43448132e-01, 3.45025629e-01, 3.45025629e-01, 3.45025629e-01,
          3.45025629e-01, 3.45025629e-01, 3.45025629e-01, 2.10264459e-01,
          3.45025629e-01, 3.45025629e-01, 3.70228142e-01, 2.75442243e-01,
          3.59835118e-01, 3.70228142e-01, 3.70228142e-01, 3.70228142e-01,
          1.85145512e-01, 2.67073303e-01, 3.70228142e-01, 3.47467780e-01,
          3.47467780e-01, 3.19654167e-01, 3.47467780e-01, 2.21839145e-01,
          3.47467780e-01, 3.47467780e-01, 3.47467780e-01, 3.47467780e-01,
          3.59283537e-01, 3.59283537e-01, 3.30234021e-01, 2.75107682e-01,
          2.49381885e-01, 3.22578579e-01, 3.59283537e-01, 3.59283537e-01,
          3.59283537e-01, 3.93274903e-01, 3.93274903e-01, 3.93274903e-01,
          1.86249971e-01, 3.29266489e-01, 1.53383434e-01, 2.36882389e-01,
          3.93274903e-01, 3.93274903e-01, 3.15533042e-01, 3.34868103e-01,
          3.34868103e-01, 3.34868103e-01, 3.34868103e-01, 3.34868103e-01,
          3.34868103e-01, 3.34868103e-01, 3.34868103e-01, 8.23282823e-02,
          3.06784421e-01, 3.74474615e-01, 3.74474615e-01, 3.71868074e-01,
          2.36478567e-01, 3.74474615e-01, 3.74474615e-01, 3.74474615e-01,
          3.41751426e-01, 2.86372125e-01, 3.41751426e-01, 3.41751426e-01,
          3.11477304e-01, 3.41751426e-01, 3.41751426e-01, 3.41751426e-01,
          3.41751426e-01, 3.46824527e-01, 3.30840468e-01, 1.73341408e-01,
          3.62461746e-01, 3.43956381e-01, 3.62461746e-01, 3.62461746e-01,
          3.62461746e-01, 3.04579526e-01, 3.68413776e-01, 3.68413776e-01,
          3.68413776e-01, 3.68413776e-01, 2.48419762e-01, 2.64534831e-01,
          3.68413776e-01, 3.37241173e-01, 2.68799454e-01, 3.94311428e-01,
          3.94311428e-01, 1.90440595e-01, 3.88340026e-01, 1.82997778e-01,
          3.32382381e-01, 2.07588717e-01, 3.94311428e-01, 3.94311428e-01,
          3.62340301e-01, 3.62340301e-01, 2.55653143e-01, 3.62340301e-01,
          2.02058449e-01, 3.62340301e-01, 3.20079327e-01, 3.62340301e-01,
          3.62340301e-01, 3.69174093e-01, 3.69174093e-01, 2.79969186e-01,
          3.69174093e-01, 2.55885124e-01, 1.86318606e-01, 3.69174093e-01,
          3.69174093e-01, 3.69174093e-01, 3.46810192e-01, 3.46810192e-01,
          3.19981426e-01, 3.46810192e-01, 3.46810192e-01, 3.46810192e-01,
          2.28485808e-01, 3.46810192e-01, 3.46810192e-01, 3.62340301e-01,
          3.62340301e-01, 2.55653143e-01, 3.62340301e-01, 2.02058449e-01,
          3.62340301e-01, 3.20079327e-01, 3.62340301e-01, 3.62340301e-01,
          3.69174093e-01, 3.69174093e-01, 2.79969186e-01, 3.69174093e-01,
          2.55885124e-01, 1.86318606e-01, 3.69174093e-01, 3.69174093e-01,
          3.69174093e-01, 3.46810192e-01, 3.46810192e-01, 3.19981426e-01,
          3.46810192e-01, 3.46810192e-01, 3.46810192e-01, 2.28485808e-01,
          3.46810192e-01, 3.46810192e-01, 3.70228142e-01, 2.75442243e-01,
          3.59835118e-01, 3.70228142e-01, 3.70228142e-01, 3.70228142e-01,
          1.85145512e-01, 2.67073303e-01, 3.70228142e-01, 3.62702101e-01,
          3.62702101e-01, 3.24487925e-01, 3.62702101e-01, 3.62702101e-01,
          3.62702101e-01, 3.62702101e-01, 1.90021485e-01, 2.56239533e-01,
          2.11087897e-01, 3.69489282e-01, 3.69489282e-01, 3.69489282e-01,
          3.69489282e-01, 3.69489282e-01, 2.29181528e-01, 2.83006161e-01,
          3.69489282e-01, 3.93274903e-01, 3.93274903e-01, 3.93274903e-01,
          1.86249971e-01, 3.29266489e-01, 1.53383434e-01, 2.36882389e-01,
          3.93274903e-01, 3.93274903e-01, 3.82118881e-01, 3.65863234e-01,
          3.25529754e-01, 2.65036762e-01, 2.39879251e-01, 2.10976526e-01,
          3.82118881e-01, 3.82118881e-01, 3.82118881e-01, 3.40564489e-01,
          3.40564489e-01, 3.40564489e-01, 3.40564489e-01, 3.40564489e-01,
          2.62152672e-01, 3.40564489e-01, 3.40564489e-01, 3.40564489e-01 ]
      - [ 6.49361074e-01, 1.18423536e-01, 3.41672659e-01, 0.,
          9.37661156e-03, 4.67084767e-03, 1.14089139e-01, 7.92898983e-02,
          6.49361074e-01, 6.18100464e-01, 1.77410945e-01, 3.52622837e-01,
          1.17130831e-01, 1.04769856e-01, 1.53630167e-01, 1.38483495e-01,
          8.02406222e-02, 6.18100464e-01, 3.39704186e-01, 3.88270617e-01,
          3.88270617e-01, 2.44162858e-01, 3.88270617e-01, 3.88270617e-01,
          3.88270617e-01, 1.86855495e-01, 1.80059373e-01, 1.34206861e-01,
          3.36958058e-02, 1.02010995e-01, 7.88076073e-02, 5.81473649e-01,
          5.81473649e-01, 4.44812387e-01, 2.42233336e-01, 1.60224274e-01,
          5.49186230e-01, 2.66768754e-01, 1.93122178e-02, 4.58499379e-02,
          5.49186230e-01, 5.49186230e-01, 9.22052711e-02, 2.42413748e-02,
          8.34801570e-02, 4.80514199e-01, 4.80514199e-01, 6.36503249e-02,
          7.29613006e-02, 4.74012971e-01, 4.80514199e-01, 2.51548976e-01,
          4.97981794e-02, 5.19548245e-02, 1.50579378e-01, 3.20713341e-01,
          3.65470260e-01, 2.20204651e-01, 3.71134043e-01, 3.71134043e-01,
          3.71134043e-01, 3.71134043e-01, 3.71134043e-01, 4.14460272e-01,
          4.14460272e-01, 2.70082444e-01, 4.14460272e-01, 4.14460272e-01,
          4.14460272e-01, 8.19917545e-02, 1.07482217e-01, 2.13900298e-01,
          4.25607532e-01, 4.25607532e-01, 1.99095175e-01, 3.01364183e-01,
          2.71065444e-01, 2.86014050e-01, 4.25607532e-01, 3.31900060e-01,
          2.37541050e-01, 1.50579378e-01, 3.20713341e-01, 3.65470260e-01,
          2.20204651e-01, 3.71134043e-01, 3.71134043e-01, 3.71134043e-01,
          3.71134043e-01, 3.71134043e-01, 4.14460272e-01, 4.14460272e-01,
          2.70082444e-01, 4.14460272e-01, 4.14460272e-01, 4.14460272e-01,
          8.19917545e-02, 1.07482217e-01, 2.13900298e-01, 4.25607532e-01,
          4.25607532e-01, 1.99095175e-01, 3.01364183e-01, 2.71065444e-01,
          2.86014050e-01, 4.25607532e-01, 3.31900060e-01, 2.37541050e-01,
          9.15040225e-02, 2.09298074e-01, 3.20580482e-01, 4.61368293e-01,
          3.10266137e-01, 9.67523307e-02, 3.10214221e-01, 4.61368293e-01,
          4.61368293e-01, 1.15425244e-01, 9.61169675e-02, 1.19273946e-01,
          4.89203185e-01, 4.89203185e-01, 9.65700112e-03, 3.08876857e-02,
          4.89203185e-01, 4.89203185e-01, 6.31355047e-02, 1.34621058e-02,
          8.25016499e-02, 4.91314143e-01, 4.91314143e-01, 2.25906391e-02,
          1.34352267e-01, 4.91314143e-01, 4.91314143e-01, 3.88149321e-02,
          1.42390495e-02, 5.02540208e-02, 5.24225473e-01, 6.07065260e-01,
          4.70699102e-01, 3.07948142e-01, 9.69587192e-02, 1.43431455e-01,
          1.21221818e-01, 3.37485857e-02, 1.79185510e-01, 4.81339991e-01,
          4.81339991e-01, 7.42139965e-02, 1.22437082e-01, 4.81339991e-01,
          4.81339991e-01, 2.12981030e-01, 2.24537198e-02, 1.10848308e-01,
          4.98850793e-01, 4.35551524e-01, 2.35454291e-02, 7.03714462e-03,
          4.98850793e-01, 4.98850793e-01, 3.39704186e-01, 3.88270617e-01,
          3.88270617e-01, 2.44162858e-01, 3.88270617e-01, 3.88270617e-01,
          3.88270617e-01, 1.86855495e-01, 1.80059373e-01, 3.41918766e-01,
          1.47452906e-01, 1.19047791e-01, 6.48468360e-02, 3.33504528e-01,
          4.78474915e-01, 4.78474915e-01, 4.78474915e-01, 2.00381294e-01,
          3.05505425e-01, 3.85738648e-02, 2.27191955e-01, 3.85638326e-01,
          3.25768620e-01, 3.85638326e-01, 3.85638326e-01, 3.85638326e-01,
          3.85638326e-01, 4.80514199e-01, 4.80514199e-01, 6.36503249e-02,
          7.29613006e-02, 4.74012971e-01, 4.80514199e-01, 2.51548976e-01,
          4.97981794e-02, 5.19548245e-02, 4.10155207e-01, 4.10155207e-01,
          2.41286024e-01, 8.53723139e-02, 2.93961674e-01, 4.10155207e-01,
          4.10155207e-01, 2.94718653e-01, 2.90195674e-01, 3.76908243e-01,
          1.97904959e-01, 2.71635920e-01, 8.66474062e-02, 8.30935240e-02,
          3.21809173e-01, 4.90186125e-01, 4.90186125e-01, 3.76236081e-01,
          4.25607532e-01, 4.25607532e-01, 1.99095175e-01, 3.01364183e-01,
          2.71065444e-01, 2.86014050e-01, 4.25607532e-01, 3.31900060e-01,
          2.37541050e-01, 8.38020816e-02, 4.33875084e-01, 4.33875084e-01,
          4.00002822e-02, 1.45512864e-01, 4.33875084e-01, 4.33875084e-01,
          4.33875084e-01, 1.56943679e-01, 3.08357179e-01, 4.40963417e-01,
          4.40963417e-01, 2.01328158e-01, 1.40080318e-01, 1.31315708e-01,
          4.40963417e-01, 3.68206620e-01, 3.22783947e-01, 4.25607532e-01,
          4.25607532e-01, 1.99095175e-01, 3.01364183e-01, 2.71065444e-01,
          2.86014050e-01, 4.25607532e-01, 3.31900060e-01, 2.37541050e-01,
          8.38020816e-02, 4.33875084e-01, 4.33875084e-01, 4.00002822e-02,
          1.45512864e-01, 4.33875084e-01, 4.33875084e-01, 4.33875084e-01,
          1.56943679e-01, 3.08357179e-01, 4.40963417e-01, 4.40963417e-01,
          2.01328158e-01, 1.40080318e-01, 1.31315708e-01, 4.40963417e-01,
          3.68206620e-01, 3.22783947e-01, 6.31355047e-02, 1.34621058e-02,
          8.25016499e-02, 4.91314143e-01, 4.91314143e-01, 2.25906391e-02,
          1.34352267e-01, 4.91314143e-01, 4.91314143e-01, 2.51946300e-01,
          3.54982853e-01, 3.75932276e-01, 3.75932276e-01, 2.92211503e-01,
          1.21415183e-01, 3.75932276e-01, 3.75932276e-01, 3.75932276e-01,
          2.48182908e-01, 4.42684978e-01, 4.42684978e-01, 1.20600164e-01,
          1.11213408e-01, 1.30186617e-01, 4.42684978e-01, 4.42684978e-01,
          3.25947762e-01, 2.12981030e-01, 2.24537198e-02, 1.10848308e-01,
          4.98850793e-01, 4.35551524e-01, 2.35454291e-02, 7.03714462e-03,
          4.98850793e-01, 4.98850793e-01, 3.08903188e-01, 1.12769023e-01,
          9.56804305e-02, 4.41765517e-01, 4.41765517e-01, 2.21909821e-01,
          2.20053539e-01, 4.41765517e-01, 4.41765517e-01, 4.10401642e-01,
          4.10401642e-01, 4.10401642e-01, 1.40989810e-01, 1.54644206e-01,
          2.17037663e-01, 4.10401642e-01, 4.10401642e-01, 2.50707924e-01 ]
      - [ 4.30524647e-01, 1.74764067e-01, 2.37687647e-01, 8.54988117e-03,
          7.17149302e-02, 1.93004072e-01, 4.76230770e-01, 4.76230770e-01,
          4.76230770e-01, 4.76927280e-01, 2.19383031e-01, 7.82125369e-02,
          4.28878423e-03, 4.76927280e-01, 4.76927280e-01, 4.19740766e-01,
          1.56665698e-01, 2.40554795e-01, 4.94595677e-01, 4.94595677e-01,
          9.52038467e-02, 2.55900621e-02, 4.94595677e-01, 4.94595677e-01,
          7.03650713e-02, 2.05930118e-02, 3.82976979e-02, 5.15027463e-01,
          2.22277552e-01, 1.86502755e-01, 1.81820706e-01, 5.15027463e-01,
          5.15027463e-01, 2.18294263e-01, 9.58410203e-02, 1.58142999e-01,
          4.96622235e-01, 4.96622235e-01, 3.02596297e-02, 1.39921578e-02,
          4.90683913e-01, 4.96622235e-01, 7.54333436e-02, 6.00606985e-02,
          6.29252791e-02, 5.46550691e-01, 5.46550691e-01, 8.57098680e-03,
          9.94322170e-03, 2.94652671e-01, 5.46550691e-01, 7.12345466e-02,
          1.26103749e-02, 7.85049424e-02, 2.62512147e-01, 2.01981559e-01,
          3.90198082e-01, 3.90198082e-01, 2.82178223e-01, 3.90198082e-01,
          2.13296741e-01, 3.90198082e-01, 3.90198082e-01, 4.20835882e-01,
          2.90536731e-01, 1.30984187e-01, 4.20835882e-01, 4.20835882e-01,
          1.58224687e-01, 4.57741879e-02, 3.98354143e-01, 4.20835882e-01,
          4.29594755e-01, 1.82092711e-01, 6.55825511e-02, 4.29594755e-01,
          4.29594755e-01, 2.06806377e-01, 7.57815763e-02, 4.14163619e-01,
          4.29594755e-01, 2.62512147e-01, 2.01981559e-01, 3.90198082e-01,
          3.90198082e-01, 2.82178223e-01, 3.90198082e-01, 2.13296741e-01,
          3.90198082e-01, 3.90198082e-01, 4.20835882e-01, 2.90536731e-01,
          1.30984187e-01, 4.20835882e-01, 4.20835882e-01, 1.58224687e-01,
          4.57741879e-02, 3.98354143e-01, 4.20835882e-01, 4.29594755e-01,
          1.82092711e-01, 6.55825511e-02, 4.29594755e-01, 4.29594755e-01,
          2.06806377e-01, 7.57815763e-02, 4.14163619e-01, 4.29594755e-01,
          1.45058870e-01, 9.61317196e-02, 2.36482292e-01, 5.14301717e-01,
          3.34774554e-01, 4.38403599e-02, 3.37876789e-02, 5.14301717e-01,
          5.14301717e-01, 1.27442762e-01, 5.41818282e-03, 2.91853249e-02,
          5.22655666e-01, 3.95717591e-01, 3.85132432e-02, 8.65798444e-03,
          5.22655666e-01, 5.22655666e-01, 4.19680625e-02, 2.60880287e-03,
          2.57965773e-02, 5.19249201e-01, 4.26036179e-01, 4.46092635e-02,
          4.95654484e-03, 5.19249201e-01, 5.19249201e-01, 1.58641532e-01,
          9.23215747e-02, 3.04449260e-01, 2.01744586e-01, 4.84356821e-01,
          3.17010939e-01, 4.91124958e-01, 3.95326674e-01, 3.08916926e-01,
          1.15149423e-01, 3.68873700e-02, 1.06389038e-01, 3.55709225e-01,
          4.14215088e-01, 4.14215088e-01, 4.14215088e-01, 3.96355748e-01,
          4.14215088e-01, 1.26576602e-01, 2.69098599e-02, 2.87758499e-01,
          5.23306847e-01, 2.69099087e-01, 2.44835503e-02, 2.56718751e-02,
          5.23306847e-01, 5.23306847e-01, 4.94595677e-01, 4.94595677e-01,
          9.52038467e-02, 2.55900621e-02, 4.94595677e-01, 4.94595677e-01,
          7.03650713e-02, 2.05930118e-02, 3.82976979e-02, 4.93675768e-01,
          4.93675768e-01, 2.16086712e-02, 1.29690561e-02, 4.93675768e-01,
          4.93675768e-01, 1.28477380e-01, 1.36652160e-02, 5.36478311e-02,
          3.97378802e-01, 3.97378802e-01, 1.98235244e-01, 1.04539029e-01,
          3.97378802e-01, 3.97378802e-01, 3.97378802e-01, 2.87235409e-01,
          2.71571219e-01, 5.46550691e-01, 5.46550691e-01, 8.57098680e-03,
          9.94322170e-03, 2.94652671e-01, 5.46550691e-01, 7.12345466e-02,
          1.26103749e-02, 7.85049424e-02, 4.83711690e-01, 4.83711690e-01,
          7.94804692e-02, 4.22895774e-02, 1.50542274e-01, 4.83711690e-01,
          4.83711690e-01, 1.03294082e-01, 1.33501187e-01, 2.02725098e-01,
          4.52812254e-01, 4.52812254e-01, 9.24062431e-02, 3.02169830e-01,
          4.52812254e-01, 4.52812254e-01, 1.84920833e-01, 1.35078169e-02,
          4.29594755e-01, 1.82092711e-01, 6.55825511e-02, 4.29594755e-01,
          4.29594755e-01, 2.06806377e-01, 7.57815763e-02, 4.14163619e-01,
          4.29594755e-01, 8.02288204e-02, 1.27056599e-01, 3.35290879e-01,
          1.09372348e-01, 4.23421487e-02, 5.19980609e-01, 5.19980609e-01,
          5.19980609e-01, 1.86848626e-01, 1.15527444e-01, 4.50624466e-01,
          4.50624466e-01, 5.19087762e-02, 1.51306754e-02, 3.94458354e-01,
          4.50624466e-01, 4.50624466e-01, 1.06685363e-01, 4.29594755e-01,
          1.82092711e-01, 6.55825511e-02, 4.29594755e-01, 4.29594755e-01,
          2.06806377e-01, 7.57815763e-02, 4.14163619e-01, 4.29594755e-01,
          8.02288204e-02, 1.27056599e-01, 3.35290879e-01, 1.09372348e-01,
          4.23421487e-02, 5.19980609e-01, 5.19980609e-01, 5.19980609e-01,
          1.86848626e-01, 1.15527444e-01, 4.50624466e-01, 4.50624466e-01,
          5.19087762e-02, 1.51306754e-02, 3.94458354e-01, 4.50624466e-01,
          4.50624466e-01, 1.06685363e-01, 4.19680625e-02, 2.60880287e-03,
          2.57965773e-02, 5.19249201e-01, 4.26036179e-01, 4.46092635e-02,
          4.95654484e-03, 5.19249201e-01, 5.19249201e-01, 3.61298248e-02,
          3.64356674e-02, 1.28244817e-01, 4.75971550e-01, 4.75971550e-01,
          4.48904149e-02, 2.60682851e-01, 4.75971550e-01, 4.75971550e-01,
          1.05450615e-01, 4.45993036e-01, 4.45993036e-01, 2.79384106e-01,
          7.72464275e-02, 1.64001007e-02, 4.45993036e-01, 4.45993036e-01,
          3.23256522e-01, 1.26576602e-01, 2.69098599e-02, 2.87758499e-01,
          5.23306847e-01, 2.69099087e-01, 2.44835503e-02, 2.56718751e-02,
          5.23306847e-01, 5.23306847e-01, 4.68888804e-02, 4.48216684e-03,
          1.11049004e-01, 5.45018256e-01, 2.93946534e-01, 8.42194445e-03,
          4.89552803e-02, 5.45018256e-01, 5.45018256e-01, 1.75382152e-01,
          2.22888187e-01, 2.39278734e-01, 4.05027449e-01, 4.05027449e-01,
          1.95000723e-01, 4.05027449e-01, 4.05027449e-01, 4.05027449e-01 ]
      - [ 4.79138225e-01, 6.12580478e-02, 5.34421504e-02, 3.60531844e-02,
          7.51415193e-02, 4.79138225e-01, 4.79138225e-01, 2.51725793e-01,
          4.79138225e-01, 3.21303040e-01, 1.49877042e-01, 1.25355691e-01,
          2.36184925e-01, 4.78624880e-01, 4.78624880e-01, 4.78624880e-01,
          1.50562242e-01, 2.96831489e-01, 3.70867938e-01, 1.67663828e-01,
          7.33648390e-02, 3.70867938e-01, 3.70867938e-01, 3.70867938e-01,
          3.70867938e-01, 3.70867938e-01, 3.70867938e-01, 2.09251329e-01,
          2.09092915e-01, 2.24232418e-03, 6.00338448e-03, 6.06737584e-02,
          6.70028329e-01, 6.70028329e-01, 4.74395342e-02, 4.42292467e-02,
          2.12968022e-01, 4.28102791e-01, 4.28102791e-01, 2.29995817e-01,
          4.28102791e-01, 4.28102791e-01, 3.13749343e-01, 2.08202928e-01,
          1.50316209e-01, 3.02543223e-01, 2.28482336e-01, 3.49034637e-01,
          3.49034637e-01, 3.49034637e-01, 3.49034637e-01, 3.49034637e-01,
          3.49034637e-01, 3.49034637e-01, 1.35540247e-01, 3.57028395e-01,
          2.84534782e-01, 2.81486381e-02, 4.59787324e-02, 5.24621546e-01,
          5.24621546e-01, 4.59406048e-01, 5.95347360e-02, 2.44063675e-01,
          4.16054696e-01, 4.16054696e-01, 2.76689619e-01, 1.29807204e-01,
          4.06076252e-01, 3.51688862e-01, 3.79126579e-01, 2.53666431e-01,
          3.51950735e-01, 1.82403609e-01, 3.19411337e-01, 3.51950735e-01,
          3.51950735e-01, 3.51950735e-01, 3.43472123e-01, 3.51950735e-01,
          3.51950735e-01, 1.35540247e-01, 3.57028395e-01, 2.84534782e-01,
          2.81486381e-02, 4.59787324e-02, 5.24621546e-01, 5.24621546e-01,
          4.59406048e-01, 5.95347360e-02, 2.44063675e-01, 4.16054696e-01,
          4.16054696e-01, 2.76689619e-01, 1.29807204e-01, 4.06076252e-01,
          3.51688862e-01, 3.79126579e-01, 2.53666431e-01, 3.51950735e-01,
          1.82403609e-01, 3.19411337e-01, 3.51950735e-01, 3.51950735e-01,
          3.51950735e-01, 3.43472123e-01, 3.51950735e-01, 3.51950735e-01,
          4.45026867e-02, 2.68664032e-01, 5.34236312e-01, 1.19118847e-01,
          8.01778436e-02, 7.91506246e-02, 5.34236312e-01, 5.34236312e-01,
          1.93380848e-01, 2.01208845e-01, 4.17954743e-01, 4.17954743e-01,
          4.17954743e-01, 1.08888701e-01, 2.65654325e-01, 4.17954743e-01,
          3.80271792e-01, 1.71928942e-01, 3.34857315e-01, 3.15624833e-01,
          3.34857315e-01, 3.34857315e-01, 3.34857315e-01, 3.34857315e-01,
          3.34857315e-01, 3.34857315e-01, 3.34857315e-01, 1.32216271e-02,
          2.96023507e-02, 2.77222365e-01, 5.03307998e-01, 1.99448168e-01,
          3.40587310e-02, 2.46674389e-01, 5.29951572e-01, 5.29951572e-01,
          3.62261385e-01, 3.99888635e-01, 3.99888635e-01, 3.99888635e-01,
          1.50551587e-01, 9.45611447e-02, 1.83329046e-01, 3.99888635e-01,
          3.99888635e-01, 3.45478863e-01, 2.04213113e-01, 3.45478863e-01,
          3.45478863e-01, 3.45478863e-01, 3.45478863e-01, 3.45478863e-01,
          3.45478863e-01, 3.45478863e-01, 3.70867938e-01, 1.67663828e-01,
          7.33648390e-02, 3.70867938e-01, 3.70867938e-01, 3.70867938e-01,
          3.70867938e-01, 3.70867938e-01, 3.70867938e-01, 4.53541130e-01,
          6.99766353e-02, 1.03196755e-01, 4.53541130e-01, 4.53541130e-01,
          3.52320075e-01, 9.02498811e-02, 1.57641441e-01, 4.53541130e-01,
          3.61295789e-01, 3.61295789e-01, 3.23613793e-01, 3.30730200e-01,
          3.61295789e-01, 3.61295789e-01, 1.43626139e-01, 3.30121547e-01,
          3.61295789e-01, 3.02543223e-01, 2.28482336e-01, 3.49034637e-01,
          3.49034637e-01, 3.49034637e-01, 3.49034637e-01, 3.49034637e-01,
          3.49034637e-01, 3.49034637e-01, 2.64273942e-01, 1.13839731e-01,
          2.67882258e-01, 4.25694853e-01, 2.73212224e-01, 2.04149693e-01,
          4.25694853e-01, 4.25694853e-01, 4.25694853e-01, 3.36908072e-01,
          4.06596035e-01, 4.06596035e-01, 4.06596035e-01, 1.83208749e-01,
          1.24583453e-01, 8.21163207e-02, 4.06596035e-01, 4.06596035e-01,
          3.51950735e-01, 1.82403609e-01, 3.19411337e-01, 3.51950735e-01,
          3.51950735e-01, 3.51950735e-01, 3.43472123e-01, 3.51950735e-01,
          3.51950735e-01, 1.79078698e-01, 2.46411711e-01, 3.18607748e-01,
          3.65615547e-01, 3.65615547e-01, 3.65615547e-01, 3.65615547e-01,
          3.65615547e-01, 3.65615547e-01, 7.05019012e-02, 3.30501974e-01,
          4.65168953e-01, 4.65168953e-01, 2.56377012e-01, 8.85535553e-02,
          3.42856884e-01, 4.65168953e-01, 2.02196479e-01, 3.51950735e-01,
          1.82403609e-01, 3.19411337e-01, 3.51950735e-01, 3.51950735e-01,
          3.51950735e-01, 3.43472123e-01, 3.51950735e-01, 3.51950735e-01,
          1.79078698e-01, 2.46411711e-01, 3.18607748e-01, 3.65615547e-01,
          3.65615547e-01, 3.65615547e-01, 3.65615547e-01, 3.65615547e-01,
          3.65615547e-01, 7.05019012e-02, 3.30501974e-01, 4.65168953e-01,
          4.65168953e-01, 2.56377012e-01, 8.85535553e-02, 3.42856884e-01,
          4.65168953e-01, 2.02196479e-01, 3.34857315e-01, 3.15624833e-01,
          3.34857315e-01, 3.34857315e-01, 3.34857315e-01, 3.34857315e-01,
          3.34857315e-01, 3.34857315e-01, 3.34857315e-01, 2.15251788e-01,
          2.81631559e-01, 3.75856221e-01, 3.75856221e-01, 1.83315516e-01,
          3.75856221e-01, 3.75856221e-01, 3.75856221e-01, 3.61457020e-01,
          4.78146523e-01, 4.78146523e-01, 4.78146523e-01, 7.73155093e-02,
          1.05245620e-01, 1.32136077e-01, 4.78146523e-01, 2.09386155e-01,
          4.86942008e-02, 3.45478863e-01, 2.04213113e-01, 3.45478863e-01,
          3.45478863e-01, 3.45478863e-01, 3.45478863e-01, 3.45478863e-01,
          3.45478863e-01, 3.45478863e-01, 4.24350113e-01, 4.24350113e-01,
          7.50872418e-02, 9.87550914e-02, 2.31384993e-01, 4.24350113e-01,
          4.24350113e-01, 3.14129561e-01, 3.28423321e-01, 5.78769982e-01,
          5.78769982e-01, 1.22698724e-01, 2.36876383e-02, 1.01125583e-01,
          4.97379571e-01, 2.25080878e-01, 1.13591067e-02, 1.58761162e-02 ]
      - [ 3.43773156e-01, 3.43773156e-01, 3.43773156e-01, 3.06428790e-01,
          3.43773156e-01, 2.74603218e-01, 3.43773156e-01, 3.43773156e-01,
          3.43773156e-01, 3.40996206e-01, 3.40996206e-01, 3.40996206e-01,
          3.40996206e-01, 3.40996206e-01, 2.57615209e-01, 3.40996206e-01,
          3.40996206e-01, 3.40996206e-01, 3.39183360e-01, 3.39183360e-01,
          3.39183360e-01, 3.39183360e-01, 3.39183360e-01, 2.76130766e-01,
          3.39183360e-01, 3.39183360e-01, 3.39183360e-01, 3.38010997e-01,
          3.38010997e-01, 2.87421733e-01, 3.38010997e-01, 3.38010997e-01,
          3.38010997e-01, 3.38010997e-01, 3.38010997e-01, 3.38010997e-01,
          3.40825677e-01, 3.40825677e-01, 3.40825677e-01, 3.40825677e-01,
          3.40825677e-01, 3.40825677e-01, 3.40825677e-01, 2.59417504e-01,
          3.40825677e-01, 3.34585905e-01, 3.34585905e-01, 3.34585905e-01,
          3.34585905e-01, 3.17923218e-01, 3.34585905e-01, 3.34585905e-01,
          3.34585905e-01, 3.34585905e-01, 3.42077821e-01, 3.42077821e-01,
          2.72540718e-01, 3.21221352e-01, 3.42077821e-01, 3.42077821e-01,
          3.42077821e-01, 3.42077821e-01, 3.42077821e-01, 3.60359699e-01,
          3.60359699e-01, 3.60359699e-01, 3.60359699e-01, 3.32366467e-01,
          3.60359699e-01, 2.57948369e-01, 2.00599834e-01, 3.60359699e-01,
          3.51213783e-01, 3.51213783e-01, 3.05443734e-01, 2.76612461e-01,
          2.94234753e-01, 3.51213783e-01, 3.51213783e-01, 3.51213783e-01,
          3.51213783e-01, 3.42077821e-01, 3.42077821e-01, 2.72540718e-01,
          3.21221352e-01, 3.42077821e-01, 3.42077821e-01, 3.42077821e-01,
          3.42077821e-01, 3.42077821e-01, 3.60359699e-01, 3.60359699e-01,
          3.60359699e-01, 3.60359699e-01, 3.32366467e-01, 3.60359699e-01,
          2.57948369e-01, 2.00599834e-01, 3.60359699e-01, 3.51213783e-01,
          3.51213783e-01, 3.05443734e-01, 2.76612461e-01, 2.94234753e-01,
          3.51213783e-01, 3.51213783e-01, 3.51213783e-01, 3.51213783e-01,
          3.47195953e-01, 3.39540392e-01, 3.47195953e-01, 1.93463832e-01,
          3.47195953e-01, 3.47195953e-01, 3.47195953e-01, 3.47195953e-01,
          3.47195953e-01, 3.32778692e-01, 3.32778692e-01, 3.32778692e-01,
          3.32778692e-01, 3.32778692e-01, 3.32778692e-01, 3.32778692e-01,
          3.32778692e-01, 3.32778692e-01, 2.71823823e-01, 3.93435717e-01,
          3.93435717e-01, 3.93435717e-01, 3.93435717e-01, 3.93435717e-01,
          2.21270770e-01, 2.34846666e-01, 2.10022315e-01, 4.13745373e-01,
          4.13745373e-01, 4.13745373e-01, 1.19771644e-01, 1.60404369e-01,
          1.20088242e-01, 2.92309195e-01, 4.13745373e-01, 4.13745373e-01,
          4.36749130e-01, 3.23881149e-01, 3.37423682e-01, 1.05971158e-01,
          1.86681524e-01, 1.71018139e-01, 3.59592855e-01, 4.36749130e-01,
          4.36749130e-01, 3.73691499e-01, 3.73691499e-01, 3.73691499e-01,
          2.63829291e-01, 2.05749571e-01, 2.15535939e-01, 3.73691499e-01,
          3.73691499e-01, 3.73691499e-01, 3.39183360e-01, 3.39183360e-01,
          3.39183360e-01, 3.39183360e-01, 3.39183360e-01, 2.76130766e-01,
          3.39183360e-01, 3.39183360e-01, 3.39183360e-01, 3.54840904e-01,
          3.54840904e-01, 3.54840904e-01, 2.35026225e-01, 3.54840904e-01,
          3.54840904e-01, 3.54840904e-01, 2.44607911e-01, 3.54840904e-01,
          3.48179489e-01, 3.42997164e-01, 2.75929540e-01, 2.95744747e-01,
          3.48179489e-01, 3.30344468e-01, 3.48179489e-01, 3.48179489e-01,
          3.48179489e-01, 3.34585905e-01, 3.34585905e-01, 3.34585905e-01,
          3.34585905e-01, 3.17923218e-01, 3.34585905e-01, 3.34585905e-01,
          3.34585905e-01, 3.34585905e-01, 3.58665407e-01, 3.58665407e-01,
          3.01572472e-01, 3.58665407e-01, 3.58665407e-01, 3.58665407e-01,
          3.58665407e-01, 2.92590529e-01, 2.19126195e-01, 3.50741804e-01,
          3.24998975e-01, 3.50741804e-01, 3.50741804e-01, 3.50741804e-01,
          3.50741804e-01, 3.50741804e-01, 3.36373597e-01, 1.99011043e-01,
          3.51213783e-01, 3.51213783e-01, 3.05443734e-01, 2.76612461e-01,
          2.94234753e-01, 3.51213783e-01, 3.51213783e-01, 3.51213783e-01,
          3.51213783e-01, 3.41644853e-01, 3.05254072e-01, 2.93867409e-01,
          3.41644853e-01, 3.41644853e-01, 3.41644853e-01, 3.41644853e-01,
          3.41644853e-01, 3.41644853e-01, 3.49044591e-01, 3.49044591e-01,
          3.49044591e-01, 3.49044591e-01, 3.49044591e-01, 3.49044591e-01,
          3.49044591e-01, 1.47836432e-01, 3.49044591e-01, 3.51213783e-01,
          3.51213783e-01, 3.05443734e-01, 2.76612461e-01, 2.94234753e-01,
          3.51213783e-01, 3.51213783e-01, 3.51213783e-01, 3.51213783e-01,
          3.41644853e-01, 3.05254072e-01, 2.93867409e-01, 3.41644853e-01,
          3.41644853e-01, 3.41644853e-01, 3.41644853e-01, 3.41644853e-01,
          3.41644853e-01, 3.49044591e-01, 3.49044591e-01, 3.49044591e-01,
          3.49044591e-01, 3.49044591e-01, 3.49044591e-01, 3.49044591e-01,
          1.47836432e-01, 3.49044591e-01, 2.71823823e-01, 3.93435717e-01,
          3.93435717e-01, 3.93435717e-01, 3.93435717e-01, 3.93435717e-01,
          2.21270770e-01, 2.34846666e-01, 2.10022315e-01, 2.99126357e-01,
          3.50011528e-01, 2.22418562e-01, 3.50011528e-01, 3.50011528e-01,
          3.50011528e-01, 3.50011528e-01, 3.50011528e-01, 3.50011528e-01,
          3.42468232e-01, 3.42468232e-01, 3.42468232e-01, 3.42468232e-01,
          3.25279564e-01, 3.42468232e-01, 3.42468232e-01, 2.64159054e-01,
          3.42468232e-01, 3.73691499e-01, 3.73691499e-01, 3.73691499e-01,
          2.63829291e-01, 2.05749571e-01, 2.15535939e-01, 3.73691499e-01,
          3.73691499e-01, 3.73691499e-01, 3.23440045e-01, 3.47845048e-01,
          3.47845048e-01, 3.47845048e-01, 3.47845048e-01, 2.93662995e-01,
          2.82304853e-01, 3.47845048e-01, 3.47845048e-01, 3.83599430e-01,
          3.83599430e-01, 3.83599430e-01, 3.83599430e-01, 3.83599430e-01,
          1.91854641e-01, 1.91245958e-01, 1.99732915e-01, 3.83599430e-01 ]
      - [ 4.80899066e-01, 4.80899066e-01, 1.42724305e-01, 9.09564644e-03,
          2.13039175e-01, 4.80899066e-01, 4.80899066e-01, 5.93877248e-02,
          2.78533865e-02, 3.53065223e-01, 3.85015279e-01, 7.62048811e-02,
          3.95389497e-02, 5.90291440e-01, 5.90291440e-01, 1.06942661e-01,
          3.02083977e-02, 6.78706616e-02, 4.11537617e-01, 4.11537617e-01,
          4.11537617e-01, 2.04399556e-01, 4.11537617e-01, 4.11537617e-01,
          1.87184528e-01, 7.68568739e-02, 2.57582128e-01, 3.35339643e-02,
          2.36491829e-01, 4.96311337e-01, 1.32275084e-02, 4.20115739e-02,
          4.00034815e-01, 5.14335155e-01, 5.14335155e-01, 2.08919086e-02,
          3.12890410e-01, 3.16132337e-01, 2.12441146e-01, 4.34767306e-01,
          4.84226674e-01, 4.84226674e-01, 1.92374676e-01, 7.97590390e-02,
          2.25497976e-01, 2.84330845e-01, 4.50440228e-01, 4.50440228e-01,
          4.50440228e-01, 4.50440228e-01, 2.53821641e-01, 2.28432920e-02,
          7.17944279e-03, 1.95121199e-01, 1.50632076e-02, 2.54678875e-01,
          4.85980630e-01, 2.17311177e-02, 9.56662372e-03, 2.44611856e-02,
          5.52141964e-01, 5.52141964e-01, 2.86944658e-01, 3.32669139e-01,
          2.43384629e-01, 1.46130875e-01, 7.22296238e-02, 2.25109741e-01,
          9.89171565e-02, 4.96021092e-01, 4.96021092e-01, 4.96021092e-01,
          2.14485720e-01, 6.31035864e-01, 6.31035864e-01, 2.03746721e-01,
          1.92757785e-01, 5.77123426e-02, 4.06437069e-02, 6.39843047e-02,
          2.52067655e-01, 1.50632076e-02, 2.54678875e-01, 4.85980630e-01,
          2.17311177e-02, 9.56662372e-03, 2.44611856e-02, 5.52141964e-01,
          5.52141964e-01, 2.86944658e-01, 3.32669139e-01, 2.43384629e-01,
          1.46130875e-01, 7.22296238e-02, 2.25109741e-01, 9.89171565e-02,
          4.96021092e-01, 4.96021092e-01, 4.96021092e-01, 2.14485720e-01,
          6.31035864e-01, 6.31035864e-01, 2.03746721e-01, 1.92757785e-01,
          5.77123426e-02, 4.06437069e-02, 6.39843047e-02, 2.52067655e-01,
          2.27920935e-02, 7.36888573e-02, 2.75847256e-01, 5.26389480e-01,
          7.73130134e-02, 8.69368576e-03, 2.74574846e-01, 5.26389480e-01,
          5.26389480e-01, 6.28253296e-02, 3.24039981e-02, 5.54674193e-02,
          3.69578898e-01, 5.11904210e-02, 2.26008520e-02, 1.35421194e-02,
          6.50204480e-01, 6.50204480e-01, 3.59421521e-01, 4.51659590e-01,
          4.51659590e-01, 2.29849309e-01, 7.03221634e-02, 5.71374372e-02,
          1.47933876e-02, 4.39381510e-01, 4.51659590e-01, 2.73375958e-01,
          2.05793053e-01, 3.26364458e-01, 5.10950744e-01, 3.56751502e-01,
          8.04723725e-02, 7.67596662e-02, 4.08057779e-01, 4.51748639e-01,
          3.94276157e-02, 3.34878825e-02, 1.32230386e-01, 5.55351198e-01,
          2.19444439e-01, 2.81692501e-02, 9.96201113e-03, 5.55351198e-01,
          5.55351198e-01, 2.77203053e-01, 1.32214874e-01, 2.84510553e-01,
          4.99156624e-01, 2.30003431e-01, 2.27354877e-02, 4.33250424e-03,
          5.08457839e-01, 5.08457839e-01, 4.11537617e-01, 4.11537617e-01,
          4.11537617e-01, 2.04399556e-01, 4.11537617e-01, 4.11537617e-01,
          1.87184528e-01, 7.68568739e-02, 2.57582128e-01, 3.05211663e-01,
          3.94673467e-01, 3.94673467e-01, 3.94673467e-01, 1.78383470e-01,
          2.52616227e-01, 3.94673467e-01, 3.94673467e-01, 1.68616340e-01,
          2.07017720e-01, 2.69102633e-01, 3.90323728e-01, 3.90323728e-01,
          3.90323728e-01, 1.95353583e-01, 2.84432739e-01, 3.90323728e-01,
          3.90323728e-01, 2.84330845e-01, 4.50440228e-01, 4.50440228e-01,
          4.50440228e-01, 4.50440228e-01, 2.53821641e-01, 2.28432920e-02,
          7.17944279e-03, 1.95121199e-01, 3.01166475e-01, 3.55122209e-01,
          3.55122209e-01, 3.07074219e-01, 3.55122209e-01, 3.55122209e-01,
          3.11177820e-01, 2.89940685e-01, 3.55122209e-01, 4.63679999e-01,
          7.55008385e-02, 9.28134620e-02, 4.63679999e-01, 4.63679999e-01,
          2.58434087e-01, 1.05869591e-01, 2.07511067e-01, 4.63679999e-01,
          2.14485720e-01, 6.31035864e-01, 6.31035864e-01, 2.03746721e-01,
          1.92757785e-01, 5.77123426e-02, 4.06437069e-02, 6.39843047e-02,
          2.52067655e-01, 3.59303206e-01, 3.59303206e-01, 3.59303206e-01,
          3.59303206e-01, 3.59303206e-01, 3.59303206e-01, 3.31616551e-01,
          2.61694372e-01, 2.08239838e-01, 4.11683172e-01, 1.46752685e-01,
          1.49790868e-01, 4.11683172e-01, 4.11683172e-01, 3.46841335e-01,
          1.05389021e-01, 3.77592236e-01, 4.11683172e-01, 2.14485720e-01,
          6.31035864e-01, 6.31035864e-01, 2.03746721e-01, 1.92757785e-01,
          5.77123426e-02, 4.06437069e-02, 6.39843047e-02, 2.52067655e-01,
          3.59303206e-01, 3.59303206e-01, 3.59303206e-01, 3.59303206e-01,
          3.59303206e-01, 3.59303206e-01, 3.31616551e-01, 2.61694372e-01,
          2.08239838e-01, 4.11683172e-01, 1.46752685e-01, 1.49790868e-01,
          4.11683172e-01, 4.11683172e-01, 3.46841335e-01, 1.05389021e-01,
          3.77592236e-01, 4.11683172e-01, 3.59421521e-01, 4.51659590e-01,
          4.51659590e-01, 2.29849309e-01, 7.03221634e-02, 5.71374372e-02,
          1.47933876e-02, 4.39381510e-01, 4.51659590e-01, 3.92899483e-01,
          3.92899483e-01, 3.92899483e-01, 3.92899483e-01, 2.68175811e-01,
          1.27518520e-01, 1.28083587e-01, 3.45890462e-01, 3.92899483e-01,
          4.13943022e-01, 1.89515412e-01, 1.82379603e-01, 4.13943022e-01,
          4.13943022e-01, 4.13943022e-01, 1.12289183e-01, 2.39444330e-01,
          4.13943022e-01, 2.77203053e-01, 1.32214874e-01, 2.84510553e-01,
          4.99156624e-01, 2.30003431e-01, 2.27354877e-02, 4.33250424e-03,
          5.08457839e-01, 5.08457839e-01, 3.88106346e-01, 3.88106346e-01,
          3.88106346e-01, 3.88106346e-01, 2.43869662e-01, 1.54805720e-01,
          1.90399885e-01, 3.51141930e-01, 3.88106346e-01, 3.65865946e-01,
          3.27766418e-01, 2.91384459e-01, 3.09668034e-01, 3.65865946e-01,
          3.65865946e-01, 3.65865946e-01, 1.97041228e-01, 3.65865946e-01 ]
      - [ 4.81037110e-01, 4.81037110e-01, 1.87018394e-01, 0.,
          1.95075050e-01, 3.81234646e-01, 4.81037110e-01, 2.09673002e-01,
          1.96653366e-01, 5.11960924e-01, 4.88455296e-01, 1.60161689e-01,
          2.37539764e-02, 1.62374139e-01, 5.11960924e-01, 2.75762975e-01,
          1.99791774e-01, 2.52085507e-01, 5.38286865e-01, 5.38286865e-01,
          1.14693955e-01, 1.23553919e-02, 2.74042040e-01, 5.38286865e-01,
          1.89547449e-01, 1.10981176e-02, 3.01384293e-02, 4.82993752e-01,
          4.82993752e-01, 8.23756978e-02, 2.95736697e-02, 4.40474063e-01,
          4.82993752e-01, 2.92521477e-01, 6.31093085e-02, 6.40130788e-02,
          4.15172100e-01, 4.15172100e-01, 4.15172100e-01, 9.92661640e-02,
          2.57541984e-01, 4.15172100e-01, 3.78574848e-01, 1.51340187e-01,
          2.52936482e-01, 4.58713502e-01, 4.58713502e-01, 3.11345339e-01,
          1.36192739e-01, 4.58713502e-01, 4.58713502e-01, 9.97368395e-02,
          9.63717327e-02, 1.37936532e-01, 3.65182340e-01, 3.65182340e-01,
          1.98101342e-01, 3.65182340e-01, 2.45989621e-01, 3.65182340e-01,
          3.30114335e-01, 3.65182340e-01, 3.47606540e-01, 3.40408772e-01,
          3.40408772e-01, 2.63768643e-01, 3.40408772e-01, 3.40408772e-01,
          3.40408772e-01, 3.40408772e-01, 3.40408772e-01, 3.40408772e-01,
          5.52388370e-01, 8.37414786e-02, 1.00519188e-01, 1.71047449e-01,
          5.52388370e-01, 1.70755163e-01, 3.37074697e-02, 4.91695143e-02,
          5.52388370e-01, 3.65182340e-01, 3.65182340e-01, 1.98101342e-01,
          3.65182340e-01, 2.45989621e-01, 3.65182340e-01, 3.30114335e-01,
          3.65182340e-01, 3.47606540e-01, 3.40408772e-01, 3.40408772e-01,
          2.63768643e-01, 3.40408772e-01, 3.40408772e-01, 3.40408772e-01,
          3.40408772e-01, 3.40408772e-01, 3.40408772e-01, 5.52388370e-01,
          8.37414786e-02, 1.00519188e-01, 1.71047449e-01, 5.52388370e-01,
          1.70755163e-01, 3.37074697e-02, 4.91695143e-02, 5.52388370e-01,
          1.23068891e-01, 7.19757229e-02, 2.75563478e-01, 4.95405197e-01,
          3.85723740e-01, 5.51533401e-02, 1.03376709e-01, 4.95405197e-01,
          4.95405197e-01, 2.38062873e-01, 1.88885376e-01, 3.71391028e-01,
          3.71391028e-01, 3.70548397e-01, 2.91734427e-01, 3.60274374e-01,
          3.71391028e-01, 3.71391028e-01, 4.21143770e-01, 1.15294851e-01,
          4.13938224e-01, 4.21143770e-01, 4.21143770e-01, 1.39225453e-01,
          1.03745423e-01, 2.67507166e-01, 4.21143770e-01, 1.71384335e-01,
          1.87716275e-01, 4.16922539e-01, 4.46089357e-01, 3.57937217e-01,
          9.59325284e-02, 2.62254417e-01, 4.46089357e-01, 3.91176343e-01,
          1.42905965e-01, 8.09362307e-02, 3.97332579e-01, 4.68774706e-01,
          3.83083344e-01, 1.98446903e-02, 6.38443902e-02, 4.68774706e-01,
          4.68774706e-01, 8.97716880e-02, 4.36924351e-03, 1.36939406e-01,
          5.27230680e-01, 3.63080442e-01, 1.95050463e-02, 4.21895124e-02,
          5.27230680e-01, 5.27230680e-01, 5.38286865e-01, 5.38286865e-01,
          1.14693955e-01, 1.23553919e-02, 2.74042040e-01, 5.38286865e-01,
          1.89547449e-01, 1.10981176e-02, 3.01384293e-02, 4.48104292e-01,
          4.48104292e-01, 1.11854300e-01, 1.29730001e-01, 2.17083305e-01,
          4.48104292e-01, 4.48104292e-01, 3.28627557e-01, 8.87221545e-02,
          3.03320229e-01, 3.39697003e-01, 4.44060951e-01, 3.76694977e-01,
          1.14289731e-01, 1.23262115e-01, 4.44060951e-01, 4.44060951e-01,
          1.62609950e-01, 4.58713502e-01, 4.58713502e-01, 3.11345339e-01,
          1.36192739e-01, 4.58713502e-01, 4.58713502e-01, 9.97368395e-02,
          9.63717327e-02, 1.37936532e-01, 4.16692317e-01, 3.72842103e-01,
          2.66487598e-01, 1.61601707e-01, 4.16692317e-01, 2.30912179e-01,
          4.16692317e-01, 4.16692317e-01, 1.08834751e-01, 4.43917923e-02,
          4.21593755e-01, 4.55253839e-01, 1.45293489e-01, 3.88595849e-01,
          1.30389124e-01, 4.55253839e-01, 4.55253839e-01, 6.96720406e-02,
          5.52388370e-01, 8.37414786e-02, 1.00519188e-01, 1.71047449e-01,
          5.52388370e-01, 1.70755163e-01, 3.37074697e-02, 4.91695143e-02,
          5.52388370e-01, 5.63748777e-01, 3.09754140e-03, 5.77105116e-03,
          6.73288926e-02, 5.63748777e-01, 1.77305952e-01, 5.37651666e-02,
          4.50367816e-02, 5.63748777e-01, 3.86507332e-01, 3.34484845e-01,
          3.86507332e-01, 2.87372440e-01, 3.86507332e-01, 3.65841210e-01,
          1.74455777e-01, 1.99623063e-01, 3.86507332e-01, 5.52388370e-01,
          8.37414786e-02, 1.00519188e-01, 1.71047449e-01, 5.52388370e-01,
          1.70755163e-01, 3.37074697e-02, 4.91695143e-02, 5.52388370e-01,
          5.63748777e-01, 3.09754140e-03, 5.77105116e-03, 6.73288926e-02,
          5.63748777e-01, 1.77305952e-01, 5.37651666e-02, 4.50367816e-02,
          5.63748777e-01, 3.86507332e-01, 3.34484845e-01, 3.86507332e-01,
          2.87372440e-01, 3.86507332e-01, 3.65841210e-01, 1.74455777e-01,
          1.99623063e-01, 3.86507332e-01, 4.21143770e-01, 1.15294851e-01,
          4.13938224e-01, 4.21143770e-01, 4.21143770e-01, 1.39225453e-01,
          1.03745423e-01, 2.67507166e-01, 4.21143770e-01, 4.18979138e-01,
          3.17075700e-02, 2.24587813e-01, 3.68226171e-01, 4.18979138e-01,
          5.67183420e-02, 4.18979138e-01, 3.21539998e-01, 4.18979138e-01,
          4.13434267e-01, 3.87367874e-01, 4.13434267e-01, 1.46248057e-01,
          1.10779494e-01, 4.04513814e-02, 4.13434267e-01, 4.13434267e-01,
          3.56100500e-01, 8.97716880e-02, 4.36924351e-03, 1.36939406e-01,
          5.27230680e-01, 3.63080442e-01, 1.95050463e-02, 4.21895124e-02,
          5.27230680e-01, 5.27230680e-01, 6.79212213e-02, 4.03911732e-02,
          1.99367926e-01, 4.54577416e-01, 4.54577416e-01, 1.03040002e-01,
          3.35093200e-01, 4.54577416e-01, 4.54577416e-01, 9.91275311e-02,
          4.09805387e-01, 4.09805387e-01, 3.84589225e-01, 2.01072484e-01,
          3.19116324e-01, 4.09805387e-01, 4.09805387e-01, 1.55383110e-01 ]
      - [ 5.17544627e-01, 2.29046792e-01, 1.57741398e-01, 6.18509133e-04,
          2.98109576e-02, 5.17544627e-01, 3.36121827e-01, 7.88931735e-03,
          5.17544627e-01, 2.06170097e-01, 2.20492512e-01, 4.99882065e-02,
          1.06471041e-02, 5.91790318e-01, 7.11424530e-01, 1.22646742e-01,
          5.12099732e-03, 1.66595593e-01, 2.77123690e-01, 5.42573631e-01,
          1.20850503e-01, 9.22225565e-02, 5.42573631e-01, 5.42573631e-01,
          9.21647176e-02, 4.62303823e-03, 5.47738858e-02, 1.24995239e-01,
          1.44479230e-01, 1.33199887e-02, 1.73179747e-03, 1.46224052e-02,
          6.90606296e-01, 6.90606296e-01, 2.86530517e-02, 3.89688946e-02,
          5.20117998e-01, 5.20117998e-01, 4.46698368e-02, 3.21526080e-02,
          1.73549518e-01, 5.20117998e-01, 3.84316444e-01, 2.95093954e-02,
          3.89725044e-02, 6.59029901e-01, 6.59029901e-01, 1.88982971e-02,
          7.49006961e-03, 7.29664117e-02, 3.38176191e-01, 6.79990277e-02,
          4.95842099e-03, 5.55250002e-03, 3.75236213e-01, 5.26612878e-01,
          4.94994596e-02, 3.35708237e-03, 1.61222015e-02, 5.26612878e-01,
          5.26612878e-01, 1.01203360e-01, 9.49313194e-02, 6.80815637e-01,
          6.80815637e-01, 4.53722514e-02, 1.90554429e-02, 4.16109003e-02,
          1.91568315e-01, 1.56611398e-01, 2.33571343e-02, 1.61066093e-02,
          5.39022923e-01, 5.39022923e-01, 1.15993433e-02, 1.35241430e-02,
          3.46113779e-02, 5.39022923e-01, 3.48232061e-01, 1.40553322e-02,
          1.19095808e-03, 3.75236213e-01, 5.26612878e-01, 4.94994596e-02,
          3.35708237e-03, 1.61222015e-02, 5.26612878e-01, 5.26612878e-01,
          1.01203360e-01, 9.49313194e-02, 6.80815637e-01, 6.80815637e-01,
          4.53722514e-02, 1.90554429e-02, 4.16109003e-02, 1.91568315e-01,
          1.56611398e-01, 2.33571343e-02, 1.61066093e-02, 5.39022923e-01,
          5.39022923e-01, 1.15993433e-02, 1.35241430e-02, 3.46113779e-02,
          5.39022923e-01, 3.48232061e-01, 1.40553322e-02, 1.19095808e-03,
          5.39386511e-01, 5.39386511e-01, 1.24245808e-01, 8.25897325e-03,
          6.39723614e-02, 2.82320827e-01, 5.39386511e-01, 1.48093909e-01,
          2.37758756e-02, 5.43238640e-01, 5.43238640e-01, 4.72525582e-02,
          8.09267536e-03, 2.47823615e-02, 5.43238640e-01, 3.25880796e-01,
          1.18139135e-02, 0., 1.01692542e-01, 2.74716020e-01,
          5.19379079e-02, 3.07450965e-02, 1.23173840e-01, 7.55579591e-01,
          5.62850833e-01, 6.49987394e-03, 9.47031099e-03, 2.11107776e-01,
          3.82178038e-01, 3.82178038e-01, 3.82178038e-01, 3.82178038e-01,
          3.82178038e-01, 2.61681497e-01, 3.82178038e-01, 8.23284015e-02,
          2.53894210e-01, 4.23394561e-01, 6.36566877e-02, 1.06662035e-01,
          1.35346085e-01, 6.43629313e-01, 5.49174070e-01, 2.30570859e-03,
          1.56609155e-02, 5.46149194e-01, 5.46149194e-01, 8.02481547e-02,
          1.00640282e-02, 1.52119681e-01, 5.46149194e-01, 2.47583628e-01,
          2.02032295e-03, 9.34123099e-02, 2.77123690e-01, 5.42573631e-01,
          1.20850503e-01, 9.22225565e-02, 5.42573631e-01, 5.42573631e-01,
          9.21647176e-02, 4.62303823e-03, 5.47738858e-02, 5.49952149e-01,
          5.49952149e-01, 1.12607799e-01, 2.93364897e-02, 4.52235550e-01,
          3.67562592e-01, 7.73980170e-02, 1.53870052e-02, 1.73856035e-01,
          4.19364840e-01, 1.06790684e-01, 3.73895206e-02, 2.84373224e-01,
          2.44013727e-01, 4.14900869e-01, 4.19364840e-01, 3.94163251e-01,
          4.04174000e-01, 6.59029901e-01, 6.59029901e-01, 1.88982971e-02,
          7.49006961e-03, 7.29664117e-02, 3.38176191e-01, 6.79990277e-02,
          4.95842099e-03, 5.55250002e-03, 5.15058875e-01, 5.15058875e-01,
          4.68603335e-02, 0., 1.95042178e-01, 5.15058875e-01,
          3.97606671e-01, 1.11067817e-02, 2.33992524e-02, 1.51918575e-01,
          2.03727245e-01, 6.90080076e-02, 0., 5.50193608e-01,
          5.50193608e-01, 5.50193608e-01, 6.71648830e-02, 1.11844674e-01,
          5.39022923e-01, 5.39022923e-01, 1.15993433e-02, 1.35241430e-02,
          3.46113779e-02, 5.39022923e-01, 3.48232061e-01, 1.40553322e-02,
          1.19095808e-03, 1.87081710e-01, 3.14959675e-01, 9.68118384e-02,
          4.80460189e-02, 1.28411263e-01, 7.06736207e-01, 5.75380743e-01,
          5.12756594e-03, 3.19129485e-03, 3.60571444e-01, 4.51490015e-01,
          1.55837283e-01, 9.02095512e-02, 3.62855315e-01, 4.51490015e-01,
          4.51490015e-01, 2.39797860e-01, 1.79885298e-01, 5.39022923e-01,
          5.39022923e-01, 1.15993433e-02, 1.35241430e-02, 3.46113779e-02,
          5.39022923e-01, 3.48232061e-01, 1.40553322e-02, 1.19095808e-03,
          1.87081710e-01, 3.14959675e-01, 9.68118384e-02, 4.80460189e-02,
          1.28411263e-01, 7.06736207e-01, 5.75380743e-01, 5.12756594e-03,
          3.19129485e-03, 3.60571444e-01, 4.51490015e-01, 1.55837283e-01,
          9.02095512e-02, 3.62855315e-01, 4.51490015e-01, 4.51490015e-01,
          2.39797860e-01, 1.79885298e-01, 1.01692542e-01, 2.74716020e-01,
          5.19379079e-02, 3.07450965e-02, 1.23173840e-01, 7.55579591e-01,
          5.62850833e-01, 6.49987394e-03, 9.47031099e-03, 4.62839454e-01,
          4.62839454e-01, 1.94057405e-01, 2.41591737e-01, 4.62839454e-01,
          4.62839454e-01, 2.05163836e-01, 1.21796466e-02, 1.51734985e-02,
          6.56351984e-01, 6.56351984e-01, 6.04254231e-02, 5.64175285e-02,
          1.38631865e-01, 2.98292965e-01, 1.21959575e-01, 4.39634472e-02,
          3.59694031e-03, 5.46149194e-01, 5.46149194e-01, 8.02481547e-02,
          1.00640282e-02, 1.52119681e-01, 5.46149194e-01, 2.47583628e-01,
          2.02032295e-03, 9.34123099e-02, 6.47023618e-01, 6.47023618e-01,
          8.99680983e-03, 9.97863151e-03, 1.20742880e-01, 3.74485552e-01,
          1.68163031e-02, 2.28228164e-03, 3.12182903e-02, 5.55203438e-01,
          5.55203438e-01, 4.48264778e-02, 2.74412427e-02, 4.65052538e-02,
          2.32070968e-01, 5.55203438e-01, 9.93516073e-02, 3.24100517e-02 ]
      - [ 3.66632462e-01, 2.41316944e-01, 5.48517033e-02, 1.53883025e-01,
          5.08197010e-01, 5.08197010e-01, 5.02826273e-01, 7.33481199e-02,
          2.89854612e-02, 1.73515752e-01, 2.24617541e-01, 4.23304260e-01,
          1.40070483e-01, 5.56884170e-01, 5.56884170e-01, 2.99751431e-01,
          2.18473468e-02, 6.71107322e-02, 3.44767720e-01, 3.44767720e-01,
          3.44767720e-01, 3.44767720e-01, 3.44767720e-01, 3.44767720e-01,
          2.75630951e-01, 3.44767720e-01, 2.97538996e-01, 6.30249903e-02,
          7.62609616e-02, 5.27367406e-02, 3.78667861e-02, 1.42358318e-01,
          6.06013596e-01, 6.06013596e-01, 4.70662981e-01, 6.04296699e-02,
          3.36952567e-01, 6.09980106e-01, 6.09980106e-01, 1.40051574e-01,
          1.55134425e-01, 2.61603057e-01, 6.83755577e-02, 2.90163625e-02,
          1.36332810e-01, 3.40087742e-01, 3.40087742e-01, 3.40087742e-01,
          3.40087742e-01, 3.40087742e-01, 3.40087742e-01, 2.67066389e-01,
          3.40087742e-01, 3.40087742e-01, 5.57375737e-02, 3.68713923e-02,
          8.60978216e-02, 1.64541788e-02, 2.28012279e-02, 5.78269422e-01,
          5.78269422e-01, 5.53418219e-01, 8.05803090e-02, 4.75402117e-01,
          4.75402117e-01, 4.75402117e-01, 1.67505682e-01, 1.80432588e-01,
          4.75402117e-01, 1.58833548e-01, 6.27129972e-02, 3.80498543e-02,
          3.56482714e-01, 3.56482714e-01, 2.49243826e-01, 3.56482714e-01,
          3.56482714e-01, 3.56482714e-01, 2.11556837e-01, 3.56482714e-01,
          3.56482714e-01, 5.57375737e-02, 3.68713923e-02, 8.60978216e-02,
          1.64541788e-02, 2.28012279e-02, 5.78269422e-01, 5.78269422e-01,
          5.53418219e-01, 8.05803090e-02, 4.75402117e-01, 4.75402117e-01,
          4.75402117e-01, 1.67505682e-01, 1.80432588e-01, 4.75402117e-01,
          1.58833548e-01, 6.27129972e-02, 3.80498543e-02, 3.56482714e-01,
          3.56482714e-01, 2.49243826e-01, 3.56482714e-01, 3.56482714e-01,
          3.56482714e-01, 2.11556837e-01, 3.56482714e-01, 3.56482714e-01,
          2.29580868e-02, 3.32984552e-02, 7.75408298e-02, 1.44354373e-01,
          9.53758955e-02, 7.18823299e-02, 4.50240672e-01, 6.11729145e-01,
          6.11729145e-01, 3.99899185e-01, 3.99899185e-01, 3.99899185e-01,
          3.99899185e-01, 7.23862275e-02, 1.22518271e-01, 1.45205259e-01,
          3.93793106e-01, 3.99899185e-01, 3.55320305e-01, 3.55320305e-01,
          2.58760571e-01, 3.55320305e-01, 3.55320305e-01, 3.55320305e-01,
          2.13834435e-01, 3.55320305e-01, 3.55320305e-01, 6.04960248e-02,
          6.55244663e-02, 3.31989646e-01, 4.81783509e-01, 1.73560292e-01,
          2.34902892e-02, 3.04063439e-01, 5.10629535e-01, 5.10629535e-01,
          3.73611569e-01, 3.73611569e-01, 3.73611569e-01, 3.73611569e-01,
          2.41726965e-01, 1.89939827e-01, 2.53465265e-01, 3.73611569e-01,
          3.73611569e-01, 3.58671039e-01, 2.49812916e-01, 1.83017954e-01,
          3.58671039e-01, 3.58671039e-01, 3.58671039e-01, 3.58671039e-01,
          3.58671039e-01, 3.58671039e-01, 3.44767720e-01, 3.44767720e-01,
          3.44767720e-01, 3.44767720e-01, 3.44767720e-01, 3.44767720e-01,
          2.75630951e-01, 3.44767720e-01, 2.97538996e-01, 3.34260046e-01,
          3.34260046e-01, 3.34260046e-01, 3.34260046e-01, 3.34260046e-01,
          3.21016759e-01, 3.34260046e-01, 3.34260046e-01, 3.33916396e-01,
          1.54019117e-01, 1.43694803e-01, 4.04251069e-01, 4.04251069e-01,
          3.55112225e-01, 2.28903607e-01, 4.04251069e-01, 4.04251069e-01,
          3.45563740e-01, 3.40087742e-01, 3.40087742e-01, 3.40087742e-01,
          3.40087742e-01, 3.40087742e-01, 3.40087742e-01, 2.67066389e-01,
          3.40087742e-01, 3.40087742e-01, 3.67653280e-01, 1.04131386e-01,
          1.98244363e-01, 3.67653280e-01, 3.67653280e-01, 3.67653280e-01,
          3.67653280e-01, 3.67653280e-01, 3.67653280e-01, 1.12062186e-01,
          1.39807299e-01, 4.45558041e-01, 4.45558041e-01, 3.12693387e-01,
          4.45558041e-01, 4.45558041e-01, 2.47258201e-01, 1.02195658e-01,
          3.56482714e-01, 3.56482714e-01, 2.49243826e-01, 3.56482714e-01,
          3.56482714e-01, 3.56482714e-01, 2.11556837e-01, 3.56482714e-01,
          3.56482714e-01, 2.05067292e-01, 6.75731152e-02, 1.18013307e-01,
          4.30572957e-01, 4.30572957e-01, 9.04860944e-02, 4.30572957e-01,
          4.30572957e-01, 4.30572957e-01, 1.13104180e-01, 2.81681627e-01,
          4.67044979e-01, 2.08004549e-01, 4.21721816e-01, 1.18370712e-01,
          4.67044979e-01, 4.67044979e-01, 1.16953239e-01, 3.56482714e-01,
          3.56482714e-01, 2.49243826e-01, 3.56482714e-01, 3.56482714e-01,
          3.56482714e-01, 2.11556837e-01, 3.56482714e-01, 3.56482714e-01,
          2.05067292e-01, 6.75731152e-02, 1.18013307e-01, 4.30572957e-01,
          4.30572957e-01, 9.04860944e-02, 4.30572957e-01, 4.30572957e-01,
          4.30572957e-01, 1.13104180e-01, 2.81681627e-01, 4.67044979e-01,
          2.08004549e-01, 4.21721816e-01, 1.18370712e-01, 4.67044979e-01,
          4.67044979e-01, 1.16953239e-01, 3.55320305e-01, 3.55320305e-01,
          2.58760571e-01, 3.55320305e-01, 3.55320305e-01, 3.55320305e-01,
          2.13834435e-01, 3.55320305e-01, 3.55320305e-01, 2.46717647e-01,
          4.00734037e-01, 1.94494650e-01, 2.95130163e-01, 2.76365250e-01,
          4.00734037e-01, 4.00734037e-01, 4.00734037e-01, 3.02437335e-01,
          2.82683760e-01, 5.25316834e-01, 5.25316834e-01, 8.14054683e-02,
          9.55881327e-02, 5.27141765e-02, 5.25316834e-01, 2.48322144e-01,
          8.22419748e-02, 3.58671039e-01, 2.49812916e-01, 1.83017954e-01,
          3.58671039e-01, 3.58671039e-01, 3.58671039e-01, 3.58671039e-01,
          3.58671039e-01, 3.58671039e-01, 3.67888242e-01, 3.67888242e-01,
          1.54136971e-01, 1.58663362e-01, 3.67888242e-01, 3.67888242e-01,
          3.67888242e-01, 3.67888242e-01, 3.67888242e-01, 5.85275829e-01,
          5.85275829e-01, 1.00247696e-01, 9.42197628e-03, 1.52096495e-01,
          3.57456416e-01, 9.41708386e-02, 1.37994483e-01, 3.46558571e-01 ]
      - [ 1.73800271e-02, 2.89736371e-02, 1.71037808e-01, 1.67123735e-01,
          3.76564622e-01, 6.27924085e-01, 6.27924085e-01, 5.98988086e-02,
          3.79309766e-02, 1.89728096e-01, 2.40458190e-01, 4.67720717e-01,
          4.67720717e-01, 4.67720717e-01, 4.67720717e-01, 1.46123677e-01,
          2.60438565e-02, 6.65608346e-02, 4.38241959e-01, 4.38241959e-01,
          4.38241959e-01, 4.38241959e-01, 4.38241959e-01, 9.39028561e-02,
          3.45909782e-02, 3.48577015e-02, 1.55283868e-01, 1.72651574e-01,
          1.11695841e-01, 4.29423869e-01, 3.51274163e-01, 4.19460624e-01,
          4.29423869e-01, 4.29423869e-01, 2.08500564e-01, 2.39578858e-01,
          4.16752636e-01, 4.16752636e-01, 4.16752636e-01, 4.16752636e-01,
          4.16752636e-01, 1.95188984e-01, 1.60915583e-01, 2.17730865e-01,
          1.26584649e-01, 5.21719158e-01, 5.21719158e-01, 1.53379217e-01,
          5.21719158e-01, 3.05508167e-01, 1.32467225e-01, 1.91363674e-02,
          3.98910269e-02, 2.04576612e-01, 2.88121738e-02, 1.06134720e-01,
          4.62379783e-01, 4.62379783e-01, 4.62379783e-01, 4.62379783e-01,
          3.11244339e-01, 1.76094398e-01, 1.49757043e-02, 2.73836106e-01,
          4.49463844e-01, 4.49463844e-01, 4.49463844e-01, 4.49463844e-01,
          3.17153275e-01, 8.87996405e-02, 5.74311800e-02, 2.61390172e-02,
          4.47880924e-01, 4.59097356e-01, 4.59097356e-01, 4.59097356e-01,
          3.38520646e-01, 1.98755145e-01, 5.61046228e-02, 4.48073409e-02,
          5.70130236e-02, 2.88121738e-02, 1.06134720e-01, 4.62379783e-01,
          4.62379783e-01, 4.62379783e-01, 4.62379783e-01, 3.11244339e-01,
          1.76094398e-01, 1.49757043e-02, 2.73836106e-01, 4.49463844e-01,
          4.49463844e-01, 4.49463844e-01, 4.49463844e-01, 3.17153275e-01,
          8.87996405e-02, 5.74311800e-02, 2.61390172e-02, 4.47880924e-01,
          4.59097356e-01, 4.59097356e-01, 4.59097356e-01, 3.38520646e-01,
          1.98755145e-01, 5.61046228e-02, 4.48073409e-02, 5.70130236e-02,
          9.22473073e-02, 2.12703303e-01, 4.20064986e-01, 3.81079525e-01,
          2.63484716e-01, 4.13157284e-01, 4.20064986e-01, 4.20064986e-01,
          1.65357292e-01, 5.20851731e-01, 5.96632063e-01, 4.89813596e-01,
          2.26742730e-01, 1.71345159e-01, 1.93148598e-01, 8.56659338e-02,
          3.78695428e-02, 4.28030035e-03, 3.64565462e-01, 5.15608966e-01,
          2.10840583e-01, 6.98580593e-02, 6.36229068e-02, 5.15608966e-01,
          5.15608966e-01, 5.62385321e-02, 8.85455683e-02, 1.07745089e-01,
          5.00866413e-01, 3.76646340e-01, 2.24543065e-01, 1.89014729e-02,
          8.54576156e-02, 1.75626948e-01, 5.00866413e-01, 5.00866413e-01,
          3.42318743e-01, 4.70325708e-01, 3.28034788e-01, 4.20558572e-01,
          8.26366320e-02, 4.70325708e-01, 3.68614614e-01, 8.68631080e-02,
          3.13162357e-02, 1.34455949e-01, 4.60419148e-01, 2.01746762e-01,
          6.23148121e-02, 7.04913065e-02, 5.93409896e-01, 5.93409896e-01,
          6.28986061e-02, 7.89289251e-02, 4.38241959e-01, 4.38241959e-01,
          4.38241959e-01, 4.38241959e-01, 4.38241959e-01, 9.39028561e-02,
          3.45909782e-02, 3.48577015e-02, 1.55283868e-01, 4.75552619e-01,
          4.75552619e-01, 9.96018797e-02, 4.75552619e-01, 3.62462670e-01,
          8.66090953e-02, 1.51109278e-01, 1.81964174e-01, 3.34744006e-01,
          3.15566748e-01, 6.20533042e-02, 3.83008182e-01, 6.31759822e-01,
          1.44015312e-01, 7.17464909e-02, 3.87545198e-01, 1.97914138e-01,
          3.59436393e-01, 5.21719158e-01, 5.21719158e-01, 1.53379217e-01,
          5.21719158e-01, 3.05508167e-01, 1.32467225e-01, 1.91363674e-02,
          3.98910269e-02, 2.04576612e-01, 5.23822069e-01, 5.23822069e-01,
          1.69413432e-01, 6.14934675e-02, 6.58394396e-02, 7.05316961e-02,
          5.23822069e-01, 2.71076769e-01, 2.37329617e-01, 1.98202372e-01,
          9.72892269e-02, 2.75718659e-01, 5.07158279e-01, 3.17983106e-02,
          1.43284589e-01, 5.45280516e-01, 5.24043441e-01, 1.38134316e-01,
          4.47880924e-01, 4.59097356e-01, 4.59097356e-01, 4.59097356e-01,
          3.38520646e-01, 1.98755145e-01, 5.61046228e-02, 4.48073409e-02,
          5.70130236e-02, 5.47113419e-02, 3.33356112e-01, 4.28986073e-01,
          4.28986073e-01, 3.31903130e-01, 2.95853704e-01, 4.28986073e-01,
          3.58081907e-01, 5.99694401e-02, 6.38774503e-03, 2.70317756e-02,
          5.28319590e-02, 9.80846360e-02, 5.62299378e-02, 3.75650913e-01,
          6.78566158e-01, 6.12553895e-01, 9.63281374e-03, 4.47880924e-01,
          4.59097356e-01, 4.59097356e-01, 4.59097356e-01, 3.38520646e-01,
          1.98755145e-01, 5.61046228e-02, 4.48073409e-02, 5.70130236e-02,
          5.47113419e-02, 3.33356112e-01, 4.28986073e-01, 4.28986073e-01,
          3.31903130e-01, 2.95853704e-01, 4.28986073e-01, 3.58081907e-01,
          5.99694401e-02, 6.38774503e-03, 2.70317756e-02, 5.28319590e-02,
          9.80846360e-02, 5.62299378e-02, 3.75650913e-01, 6.78566158e-01,
          6.12553895e-01, 9.63281374e-03, 3.64565462e-01, 5.15608966e-01,
          2.10840583e-01, 6.98580593e-02, 6.36229068e-02, 5.15608966e-01,
          5.15608966e-01, 5.62385321e-02, 8.85455683e-02, 2.59397700e-02,
          6.77009821e-02, 3.92922491e-01, 4.50520575e-01, 4.30306852e-01,
          4.50520575e-01, 4.50520575e-01, 1.83938906e-01, 8.91721249e-02,
          1.10957231e-02, 8.38621799e-03, 1.14222974e-01, 5.07801116e-01,
          3.54288012e-01, 4.46662128e-01, 5.19150257e-01, 3.58223468e-01,
          2.90652141e-02, 1.34455949e-01, 4.60419148e-01, 2.01746762e-01,
          6.23148121e-02, 7.04913065e-02, 5.93409896e-01, 5.93409896e-01,
          6.28986061e-02, 7.89289251e-02, 2.51572311e-01, 3.80138516e-01,
          3.80138516e-01, 3.80138516e-01, 3.80138516e-01, 3.80138516e-01,
          3.80138516e-01, 1.87959716e-01, 1.74794286e-01, 4.19546455e-01,
          4.19546455e-01, 2.07716286e-01, 1.38415098e-01, 3.64617914e-01,
          2.99230456e-01, 4.19546455e-01, 3.53569269e-01, 2.40728334e-01 ]
      - [ 3.18534791e-01, 2.23375753e-01, 4.91883121e-02, 1.26271546e-01,
          5.21483004e-01, 5.21483004e-01, 5.21483004e-01, 3.99960428e-02,
          8.73703137e-02, 1.21569939e-01, 2.77319163e-01, 4.39955592e-01,
          7.75943920e-02, 5.30688882e-01, 5.30688882e-01, 3.69076788e-01,
          2.92038135e-02, 5.56893088e-02, 3.53585929e-01, 3.53585929e-01,
          3.53585929e-01, 3.53585929e-01, 3.53585929e-01, 3.53585929e-01,
          2.91760653e-01, 3.53585929e-01, 1.90215260e-01, 4.66114916e-02,
          8.72049779e-02, 9.35985968e-02, 5.24966568e-02, 2.03173205e-01,
          6.23210967e-01, 6.23210967e-01, 3.74431640e-01, 1.19253933e-01,
          4.65632051e-01, 5.37617147e-01, 5.37617147e-01, 2.32604682e-01,
          2.15907753e-01, 1.79213464e-01, 4.64292876e-02, 7.16813505e-02,
          2.44174421e-01, 3.38888735e-01, 3.38888735e-01, 3.38888735e-01,
          3.38888735e-01, 3.38888735e-01, 2.79015213e-01, 3.38888735e-01,
          3.38888735e-01, 3.38888735e-01, 2.22139642e-01, 1.27819866e-01,
          1.28383636e-01, 2.19956376e-02, 1.70812741e-01, 5.38430631e-01,
          5.38430631e-01, 5.38430631e-01, 1.14338756e-01, 4.58097190e-01,
          4.58097190e-01, 4.58097190e-01, 2.05623403e-01, 2.95489997e-01,
          4.58097190e-01, 8.05717483e-02, 6.22215532e-02, 1.26702711e-01,
          3.59303564e-01, 3.59303564e-01, 2.60268986e-01, 3.59303564e-01,
          3.59303564e-01, 3.59303564e-01, 1.58040568e-01, 3.59303564e-01,
          3.59303564e-01, 2.22139642e-01, 1.27819866e-01, 1.28383636e-01,
          2.19956376e-02, 1.70812741e-01, 5.38430631e-01, 5.38430631e-01,
          5.38430631e-01, 1.14338756e-01, 4.58097190e-01, 4.58097190e-01,
          4.58097190e-01, 2.05623403e-01, 2.95489997e-01, 4.58097190e-01,
          8.05717483e-02, 6.22215532e-02, 1.26702711e-01, 3.59303564e-01,
          3.59303564e-01, 2.60268986e-01, 3.59303564e-01, 3.59303564e-01,
          3.59303564e-01, 1.58040568e-01, 3.59303564e-01, 3.59303564e-01,
          7.68940151e-02, 1.14393145e-01, 1.64538085e-01, 1.14249475e-01,
          1.49778977e-01, 5.11174910e-02, 4.41554725e-01, 6.17295563e-01,
          5.77616990e-01, 3.94194096e-01, 3.94194096e-01, 3.94194096e-01,
          3.94194096e-01, 1.34158552e-01, 2.01415658e-01, 7.18420520e-02,
          3.94194096e-01, 3.94194096e-01, 3.51373166e-01, 3.51373166e-01,
          3.31511617e-01, 3.51373166e-01, 3.51373166e-01, 3.51373166e-01,
          1.49491876e-01, 3.51373166e-01, 3.51373166e-01, 8.99052918e-02,
          3.01619798e-01, 4.43797678e-01, 1.93813518e-01, 3.73025388e-02,
          1.22633435e-01, 2.45937318e-01, 5.40421188e-01, 5.40421188e-01,
          3.57712299e-01, 3.57712299e-01, 3.57712299e-01, 3.57712299e-01,
          3.45129520e-01, 2.79558629e-01, 1.77229270e-01, 3.57712299e-01,
          3.57712299e-01, 3.59389395e-01, 1.94307551e-01, 2.33514011e-01,
          3.59389395e-01, 3.59389395e-01, 3.59389395e-01, 3.59389395e-01,
          3.59389395e-01, 3.59389395e-01, 3.53585929e-01, 3.53585929e-01,
          3.53585929e-01, 3.53585929e-01, 3.53585929e-01, 3.53585929e-01,
          2.91760653e-01, 3.53585929e-01, 1.90215260e-01, 2.17240125e-01,
          3.37293863e-01, 3.47533792e-01, 3.47533792e-01, 3.47533792e-01,
          3.32999855e-01, 3.47533792e-01, 3.47533792e-01, 3.47533792e-01,
          1.48029640e-01, 9.06853899e-02, 4.05034870e-01, 4.05034870e-01,
          3.26864004e-01, 2.32031569e-01, 4.05034870e-01, 4.05034870e-01,
          3.85908663e-01, 3.38888735e-01, 3.38888735e-01, 3.38888735e-01,
          3.38888735e-01, 3.38888735e-01, 2.79015213e-01, 3.38888735e-01,
          3.38888735e-01, 3.38888735e-01, 3.63076895e-01, 1.45891592e-01,
          2.28723750e-01, 3.63076895e-01, 3.63076895e-01, 3.63076895e-01,
          3.63076895e-01, 3.63076895e-01, 3.63076895e-01, 1.25619933e-01,
          1.17220148e-01, 4.30827707e-01, 4.30827707e-01, 3.78453255e-01,
          4.30827707e-01, 4.30827707e-01, 2.45827034e-01, 1.41659528e-01,
          3.59303564e-01, 3.59303564e-01, 2.60268986e-01, 3.59303564e-01,
          3.59303564e-01, 3.59303564e-01, 1.58040568e-01, 3.59303564e-01,
          3.59303564e-01, 2.72259384e-01, 4.40857224e-02, 1.44700989e-01,
          4.15153027e-01, 4.15153027e-01, 1.92575857e-01, 4.15153027e-01,
          4.15153027e-01, 4.15153027e-01, 1.31053656e-01, 8.99191126e-02,
          4.23958898e-01, 1.38963848e-01, 4.86186802e-01, 1.39129177e-01,
          4.86186802e-01, 4.67270374e-01, 2.45718658e-01, 3.59303564e-01,
          3.59303564e-01, 2.60268986e-01, 3.59303564e-01, 3.59303564e-01,
          3.59303564e-01, 1.58040568e-01, 3.59303564e-01, 3.59303564e-01,
          2.72259384e-01, 4.40857224e-02, 1.44700989e-01, 4.15153027e-01,
          4.15153027e-01, 1.92575857e-01, 4.15153027e-01, 4.15153027e-01,
          4.15153027e-01, 1.31053656e-01, 8.99191126e-02, 4.23958898e-01,
          1.38963848e-01, 4.86186802e-01, 1.39129177e-01, 4.86186802e-01,
          4.67270374e-01, 2.45718658e-01, 3.51373166e-01, 3.51373166e-01,
          3.31511617e-01, 3.51373166e-01, 3.51373166e-01, 3.51373166e-01,
          1.49491876e-01, 3.51373166e-01, 3.51373166e-01, 2.51198769e-01,
          3.89491916e-01, 3.41455996e-01, 2.03348517e-01, 2.21183538e-01,
          3.90252799e-01, 3.90252799e-01, 3.90252799e-01, 3.42840761e-01,
          2.14735731e-01, 4.96550322e-01, 4.96550322e-01, 1.21416315e-01,
          7.39943534e-02, 7.72756487e-02, 4.96550322e-01, 3.86545300e-01,
          1.83403403e-01, 3.59389395e-01, 1.94307551e-01, 2.33514011e-01,
          3.59389395e-01, 3.59389395e-01, 3.59389395e-01, 3.59389395e-01,
          3.59389395e-01, 3.59389395e-01, 3.77829999e-01, 3.37671548e-01,
          3.39595191e-02, 1.56578809e-01, 3.77829999e-01, 3.77829999e-01,
          3.77829999e-01, 3.77829999e-01, 3.77829999e-01, 5.19314885e-01,
          5.19314885e-01, 2.43133083e-01, 3.88814695e-02, 1.27331033e-01,
          3.28285784e-01, 1.00492775e-01, 7.67381862e-02, 5.04816771e-01 ]
      - [ 3.75597239e-01, 1.64078847e-01, 1.09126233e-01, 3.73379923e-02,
          5.59978746e-02, 3.48549366e-01, 4.79337066e-01, 4.79337066e-01,
          4.79337066e-01, 3.40958953e-01, 3.61421078e-01, 3.61421078e-01,
          1.59014374e-01, 3.61421078e-01, 3.61421078e-01, 3.61421078e-01,
          3.61421078e-01, 2.66644120e-01, 4.09445435e-01, 4.09445435e-01,
          2.71084428e-01, 1.66666046e-01, 4.09445435e-01, 4.09445435e-01,
          1.99862838e-01, 1.28345102e-01, 4.09445435e-01, 4.25428718e-01,
          4.25428718e-01, 4.34509479e-02, 1.49699273e-02, 4.25428718e-01,
          4.25428718e-01, 4.25428718e-01, 2.37939537e-01, 1.79094940e-01,
          5.35732448e-01, 5.35732448e-01, 3.49791907e-02, 1.77727155e-02,
          2.09211618e-01, 5.35732448e-01, 2.75508285e-01, 5.22351749e-02,
          9.83864367e-02, 6.26070261e-01, 6.26070261e-01, 2.86942739e-02,
          1.99963152e-02, 1.87989086e-01, 3.92846286e-01, 7.93222710e-02,
          2.81759296e-02, 1.08830526e-01, 3.97673219e-01, 3.97673219e-01,
          3.83237690e-01, 3.97673219e-01, 3.97673219e-01, 2.82049596e-01,
          2.33852461e-01, 2.39523247e-01, 1.58018500e-01, 5.13572216e-01,
          4.18430567e-01, 5.48296683e-02, 5.13572216e-01, 4.31461841e-01,
          1.80763811e-01, 1.13500834e-01, 1.48944244e-01, 1.88058391e-01,
          3.68079275e-01, 3.68079275e-01, 3.68079275e-01, 3.68079275e-01,
          3.64656359e-01, 2.80451983e-01, 3.68079275e-01, 2.91334122e-01,
          1.49692088e-01, 3.97673219e-01, 3.97673219e-01, 3.83237690e-01,
          3.97673219e-01, 3.97673219e-01, 2.82049596e-01, 2.33852461e-01,
          2.39523247e-01, 1.58018500e-01, 5.13572216e-01, 4.18430567e-01,
          5.48296683e-02, 5.13572216e-01, 4.31461841e-01, 1.80763811e-01,
          1.13500834e-01, 1.48944244e-01, 1.88058391e-01, 3.68079275e-01,
          3.68079275e-01, 3.68079275e-01, 3.68079275e-01, 3.64656359e-01,
          2.80451983e-01, 3.68079275e-01, 2.91334122e-01, 1.49692088e-01,
          3.28260243e-01, 3.02675307e-01, 3.68054599e-01, 3.68054599e-01,
          3.68054599e-01, 1.23259716e-01, 3.23174864e-01, 3.68054599e-01,
          3.68054599e-01, 3.93392928e-02, 1.21940272e-02, 3.34651992e-02,
          5.41386962e-01, 4.32119995e-01, 3.70632522e-02, 9.72592458e-02,
          5.39386690e-01, 4.58452463e-01, 4.57807593e-02, 2.37878393e-02,
          8.80615190e-02, 6.92469478e-01, 6.64045691e-01, 2.77830400e-02,
          8.48679543e-02, 1.42762437e-01, 1.83968529e-01, 4.06750053e-01,
          1.55200794e-01, 1.55271068e-01, 2.66121835e-01, 3.20875794e-01,
          3.34926575e-01, 4.06750053e-01, 4.06750053e-01, 4.06750053e-01,
          3.48631114e-01, 3.48631114e-01, 3.48631114e-01, 3.48631114e-01,
          3.48631114e-01, 2.26695850e-01, 3.07116032e-01, 3.48631114e-01,
          3.48631114e-01, 3.72769237e-01, 3.72769237e-01, 3.49778563e-01,
          3.72769237e-01, 3.04746598e-01, 2.67175496e-01, 1.22036584e-01,
          3.72769237e-01, 3.72769237e-01, 4.09445435e-01, 4.09445435e-01,
          2.71084428e-01, 1.66666046e-01, 4.09445435e-01, 4.09445435e-01,
          1.99862838e-01, 1.28345102e-01, 4.09445435e-01, 4.99913752e-01,
          4.99913752e-01, 1.54039055e-01, 5.91332801e-02, 3.53105187e-01,
          4.99913752e-01, 2.04119921e-01, 1.22154877e-01, 1.91758007e-01,
          4.28132921e-01, 4.28132921e-01, 1.32014543e-01, 1.53370142e-01,
          4.28132921e-01, 4.28132921e-01, 4.28132921e-01, 1.04400694e-01,
          1.65482789e-01, 6.26070261e-01, 6.26070261e-01, 2.86942739e-02,
          1.99963152e-02, 1.87989086e-01, 3.92846286e-01, 7.93222710e-02,
          2.81759296e-02, 1.08830526e-01, 4.94913191e-01, 4.92008358e-01,
          3.85614969e-02, 6.35204092e-03, 9.03355777e-02, 4.94913191e-01,
          4.94913191e-01, 7.07331449e-02, 5.89608885e-02, 2.00267702e-01,
          4.55047816e-01, 4.55047816e-01, 1.91503733e-01, 2.98417330e-01,
          4.55047816e-01, 4.55047816e-01, 3.19873542e-02, 1.79928113e-02,
          3.68079275e-01, 3.68079275e-01, 3.68079275e-01, 3.68079275e-01,
          3.64656359e-01, 2.80451983e-01, 3.68079275e-01, 2.91334122e-01,
          1.49692088e-01, 1.12640850e-01, 2.69670099e-01, 1.68045953e-01,
          9.63409171e-02, 1.56649817e-02, 5.38709462e-01, 5.38709462e-01,
          5.38709462e-01, 2.86391433e-02, 3.66694517e-02, 5.21975696e-01,
          5.21975696e-01, 4.74983528e-02, 1.08388793e-02, 3.77571374e-01,
          5.21975696e-01, 1.76374659e-01, 4.96606156e-03, 3.68079275e-01,
          3.68079275e-01, 3.68079275e-01, 3.68079275e-01, 3.64656359e-01,
          2.80451983e-01, 3.68079275e-01, 2.91334122e-01, 1.49692088e-01,
          1.12640850e-01, 2.69670099e-01, 1.68045953e-01, 9.63409171e-02,
          1.56649817e-02, 5.38709462e-01, 5.38709462e-01, 5.38709462e-01,
          2.86391433e-02, 3.66694517e-02, 5.21975696e-01, 5.21975696e-01,
          4.74983528e-02, 1.08388793e-02, 3.77571374e-01, 5.21975696e-01,
          1.76374659e-01, 4.96606156e-03, 4.57807593e-02, 2.37878393e-02,
          8.80615190e-02, 6.92469478e-01, 6.64045691e-01, 2.77830400e-02,
          8.48679543e-02, 1.42762437e-01, 1.83968529e-01, 6.74528331e-02,
          6.58300072e-02, 1.65070757e-01, 5.18314660e-01, 1.40697435e-01,
          9.60648581e-02, 5.18314660e-01, 5.18314660e-01, 3.51734549e-01,
          2.17008933e-01, 4.70079511e-01, 4.70079511e-01, 1.36410519e-01,
          1.81648321e-02, 1.45186976e-01, 4.70079511e-01, 4.70079511e-01,
          1.55871227e-01, 3.72769237e-01, 3.72769237e-01, 3.49778563e-01,
          3.72769237e-01, 3.04746598e-01, 2.67175496e-01, 1.22036584e-01,
          3.72769237e-01, 3.72769237e-01, 2.56494164e-01, 1.39114410e-01,
          1.34690478e-01, 4.79714543e-01, 4.16875571e-01, 4.23984192e-02,
          1.61133766e-01, 4.79714543e-01, 4.79714543e-01, 3.78946722e-01,
          3.78946722e-01, 1.89005509e-01, 3.78946722e-01, 2.60962933e-01,
          1.75458327e-01, 3.78946722e-01, 3.78946722e-01, 3.78946722e-01 ]
      - [ 3.48969609e-01, 1.49248421e-01, 3.48969609e-01, 3.48969609e-01,
          3.48969609e-01, 3.48969609e-01, 3.48969609e-01, 3.48969609e-01,
          3.48969609e-01, 3.38263273e-01, 2.85033077e-01, 3.38263273e-01,
          3.38263273e-01, 3.38263273e-01, 3.38263273e-01, 3.38263273e-01,
          3.38263273e-01, 3.38263273e-01, 3.38039279e-01, 3.38039279e-01,
          3.38039279e-01, 3.38039279e-01, 3.38039279e-01, 3.38039279e-01,
          3.38039279e-01, 2.87155181e-01, 3.38039279e-01, 1.83914930e-01,
          2.99015582e-01, 3.53196859e-01, 3.53196859e-01, 3.53196859e-01,
          3.53196859e-01, 3.53196859e-01, 3.53196859e-01, 3.53196859e-01,
          3.40478748e-01, 3.40478748e-01, 3.40478748e-01, 3.40478748e-01,
          3.40478748e-01, 2.63043880e-01, 3.40478748e-01, 3.40478748e-01,
          3.40478748e-01, 3.52223843e-01, 2.90934116e-01, 3.52223843e-01,
          3.52223843e-01, 3.52223843e-01, 2.08342806e-01, 3.52223843e-01,
          3.52223843e-01, 3.52223843e-01, 2.23297760e-01, 3.65781426e-01,
          3.65781426e-01, 3.65781426e-01, 3.65781426e-01, 9.95557234e-02,
          3.65781426e-01, 3.65781426e-01, 3.65781426e-01, 2.05785990e-01,
          2.69328415e-01, 3.96589518e-01, 3.96589518e-01, 3.96589518e-01,
          9.84772667e-02, 2.91613549e-01, 3.96589518e-01, 3.96589518e-01,
          3.49613577e-01, 3.49613577e-01, 3.49613577e-01, 3.49613577e-01,
          2.53870428e-01, 3.49613577e-01, 3.49613577e-01, 3.49613577e-01,
          2.76494294e-01, 2.23297760e-01, 3.65781426e-01, 3.65781426e-01,
          3.65781426e-01, 3.65781426e-01, 9.95557234e-02, 3.65781426e-01,
          3.65781426e-01, 3.65781426e-01, 2.05785990e-01, 2.69328415e-01,
          3.96589518e-01, 3.96589518e-01, 3.96589518e-01, 9.84772667e-02,
          2.91613549e-01, 3.96589518e-01, 3.96589518e-01, 3.49613577e-01,
          3.49613577e-01, 3.49613577e-01, 3.49613577e-01, 2.53870428e-01,
          3.49613577e-01, 3.49613577e-01, 3.49613577e-01, 2.76494294e-01,
          3.55183214e-01, 3.55183214e-01, 3.55183214e-01, 2.54136980e-01,
          3.55183214e-01, 3.55183214e-01, 3.55183214e-01, 3.55183214e-01,
          2.20861882e-01, 2.68225342e-01, 3.54238033e-01, 3.54238033e-01,
          2.14764670e-01, 3.54238033e-01, 3.54238033e-01, 3.54238033e-01,
          3.54238033e-01, 3.54238033e-01, 3.42460126e-01, 3.42460126e-01,
          3.42460126e-01, 2.41551220e-01, 3.42460126e-01, 3.42460126e-01,
          3.42460126e-01, 3.42460126e-01, 3.42460126e-01, 3.42449516e-01,
          3.42449516e-01, 3.42449516e-01, 2.45797917e-01, 3.42449516e-01,
          3.39499742e-01, 3.42449516e-01, 3.42449516e-01, 3.42449516e-01,
          3.32778692e-01, 3.32778692e-01, 3.32778692e-01, 3.32778692e-01,
          3.32778692e-01, 3.32778692e-01, 3.32778692e-01, 3.32778692e-01,
          3.32778692e-01, 3.62808704e-01, 3.62808704e-01, 3.50215048e-01,
          3.62808704e-01, 3.62808704e-01, 2.68632978e-01, 1.08535632e-01,
          3.62808704e-01, 3.62808704e-01, 3.38039279e-01, 3.38039279e-01,
          3.38039279e-01, 3.38039279e-01, 3.38039279e-01, 3.38039279e-01,
          3.38039279e-01, 2.87155181e-01, 3.38039279e-01, 3.66018474e-01,
          3.13798964e-01, 2.04997078e-01, 2.70509005e-01, 3.35897148e-01,
          3.66018474e-01, 3.66018474e-01, 3.66018474e-01, 3.66018474e-01,
          3.83930862e-01, 3.83930862e-01, 1.86664462e-01, 7.02755973e-02,
          2.68262297e-01, 3.83930862e-01, 3.83930862e-01, 3.83930862e-01,
          3.83930862e-01, 3.52223843e-01, 2.90934116e-01, 3.52223843e-01,
          3.52223843e-01, 3.52223843e-01, 2.08342806e-01, 3.52223843e-01,
          3.52223843e-01, 3.52223843e-01, 3.51022571e-01, 3.51022571e-01,
          3.51022571e-01, 3.51022571e-01, 2.98620611e-01, 2.11661875e-01,
          3.51022571e-01, 3.51022571e-01, 3.51022571e-01, 4.35668945e-01,
          4.35668945e-01, 4.35668945e-01, 1.07085474e-01, 5.02090082e-02,
          1.46474525e-01, 1.43104956e-01, 4.24848557e-01, 4.35668945e-01,
          3.49613577e-01, 3.49613577e-01, 3.49613577e-01, 3.49613577e-01,
          2.53870428e-01, 3.49613577e-01, 3.49613577e-01, 3.49613577e-01,
          2.76494294e-01, 4.08101887e-01, 4.08101887e-01, 4.08101887e-01,
          2.82049090e-01, 2.69118696e-01, 2.72748977e-01, 4.08101887e-01,
          2.27224797e-01, 2.27453172e-01, 3.75143498e-01, 3.75143498e-01,
          3.75143498e-01, 3.75143498e-01, 3.75143498e-01, 3.05920392e-01,
          3.75143498e-01, 1.17695324e-01, 2.10752830e-01, 3.49613577e-01,
          3.49613577e-01, 3.49613577e-01, 3.49613577e-01, 2.53870428e-01,
          3.49613577e-01, 3.49613577e-01, 3.49613577e-01, 2.76494294e-01,
          4.08101887e-01, 4.08101887e-01, 4.08101887e-01, 2.82049090e-01,
          2.69118696e-01, 2.72748977e-01, 4.08101887e-01, 2.27224797e-01,
          2.27453172e-01, 3.75143498e-01, 3.75143498e-01, 3.75143498e-01,
          3.75143498e-01, 3.75143498e-01, 3.05920392e-01, 3.75143498e-01,
          1.17695324e-01, 2.10752830e-01, 3.42460126e-01, 3.42460126e-01,
          3.42460126e-01, 2.41551220e-01, 3.42460126e-01, 3.42460126e-01,
          3.42460126e-01, 3.42460126e-01, 3.42460126e-01, 3.70784283e-01,
          3.70784283e-01, 3.70784283e-01, 3.70784283e-01, 3.70784283e-01,
          2.03563645e-01, 3.70784283e-01, 2.48466715e-01, 2.61219680e-01,
          3.63120049e-01, 3.63120049e-01, 3.63120049e-01, 3.63120049e-01,
          3.60203892e-01, 1.57778189e-01, 3.63120049e-01, 2.24931791e-01,
          3.63120049e-01, 3.62808704e-01, 3.62808704e-01, 3.50215048e-01,
          3.62808704e-01, 3.62808704e-01, 2.68632978e-01, 1.08535632e-01,
          3.62808704e-01, 3.62808704e-01, 3.67680162e-01, 3.67680162e-01,
          2.66054541e-01, 3.67680162e-01, 3.67680162e-01, 1.58756077e-01,
          2.98673511e-01, 3.67680162e-01, 3.67680162e-01, 3.71010870e-01,
          3.71010870e-01, 3.71010870e-01, 3.71010870e-01, 3.71010870e-01,
          1.72223970e-01, 2.81901091e-01, 2.47526824e-01, 3.71010870e-01 ]
      - [ 5.02856588e-03, 3.12997005e-03, 1.47543056e-02, 4.10332810e-03,
          3.10392857e-01, 6.69457078e-01, 6.69457078e-01, 1.87210906e-02,
          2.70575704e-03, 6.69161156e-02, 8.15777257e-02, 4.02449042e-01,
          2.82758921e-01, 6.06182098e-01, 6.06182098e-01, 7.67071471e-02,
          9.74726398e-03, 2.11713417e-03, 4.58799511e-01, 4.58799511e-01,
          3.09789091e-01, 2.32726455e-01, 4.58799511e-01, 4.58799511e-01,
          4.21448909e-02, 1.40482960e-02, 3.63998041e-02, 6.16642572e-02,
          2.86974348e-02, 2.99153253e-02, 5.80118457e-03, 5.17351665e-02,
          6.69844210e-01, 6.69844210e-01, 2.64913380e-01, 1.32363245e-01,
          5.53692043e-01, 5.53692043e-01, 5.53692043e-01, 1.71584159e-01,
          1.85423829e-02, 1.57980859e-01, 1.00125097e-01, 5.88717982e-02,
          8.06993395e-02, 6.95872724e-01, 6.95872724e-01, 1.50797486e-01,
          3.26754376e-02, 5.87934209e-03, 2.01290082e-02, 1.71812642e-02,
          3.42171383e-03, 4.64299088e-03, 4.67808306e-01, 4.67808306e-01,
          7.01843470e-04, 0., 1.33642750e-02, 5.28525412e-02,
          4.67808306e-01, 4.67808306e-01, 3.42018127e-01, 7.01004684e-01,
          7.01004684e-01, 6.78627416e-02, 7.88421929e-03, 3.39669664e-03,
          1.65677983e-02, 8.04907829e-03, 4.63058352e-02, 5.49974740e-02,
          5.31150818e-01, 5.31150818e-01, 6.94149807e-02, 3.09276599e-02,
          3.10995914e-02, 5.31150818e-01, 3.75154138e-01, 1.04929982e-02,
          2.71863434e-02, 4.67808306e-01, 4.67808306e-01, 7.01843470e-04,
          0., 1.33642750e-02, 5.28525412e-02, 4.67808306e-01,
          4.67808306e-01, 3.42018127e-01, 7.01004684e-01, 7.01004684e-01,
          6.78627416e-02, 7.88421929e-03, 3.39669664e-03, 1.65677983e-02,
          8.04907829e-03, 4.63058352e-02, 5.49974740e-02, 5.31150818e-01,
          5.31150818e-01, 6.94149807e-02, 3.09276599e-02, 3.10995914e-02,
          5.31150818e-01, 3.75154138e-01, 1.04929982e-02, 2.71863434e-02,
          5.11167884e-01, 5.11167884e-01, 1.64101079e-01, 1.97854593e-01,
          6.97499737e-02, 1.61008462e-02, 2.92835772e-01, 5.11167884e-01,
          2.32518032e-01, 5.32669067e-01, 5.32669067e-01, 1.70752019e-01,
          7.27869943e-02, 2.77950495e-01, 5.32669067e-01, 1.75053135e-01,
          1.56304091e-02, 2.95423325e-02, 3.09762936e-02, 3.21913473e-02,
          2.68848184e-02, 4.25170846e-02, 2.87756950e-01, 8.54044616e-01,
          4.17935431e-01, 4.84016677e-03, 7.85126444e-03, 9.37303081e-02,
          9.20840278e-02, 1.13428928e-01, 3.82677019e-01, 4.45495814e-01,
          3.72411311e-01, 2.91354954e-01, 4.45495814e-01, 4.45495814e-01,
          9.64795798e-02, 3.05009112e-02, 3.09290458e-02, 1.20846108e-01,
          6.06067836e-01, 6.06067836e-01, 1.99660748e-01, 2.72919327e-01,
          3.45201105e-01, 3.76290917e-01, 8.50911587e-02, 9.27048456e-03,
          1.07273616e-01, 5.29047668e-01, 5.29047668e-01, 2.44549289e-01,
          1.52813837e-01, 4.37433690e-01, 4.58799511e-01, 4.58799511e-01,
          3.09789091e-01, 2.32726455e-01, 4.58799511e-01, 4.58799511e-01,
          4.21448909e-02, 1.40482960e-02, 3.63998041e-02, 5.08650005e-01,
          5.08650005e-01, 5.67718148e-02, 2.90470749e-01, 4.87736106e-01,
          5.15253022e-02, 4.42778170e-02, 5.03364950e-02, 3.80576551e-01,
          3.85183066e-01, 2.62449235e-01, 2.82849222e-01, 3.85183066e-01,
          3.85183066e-01, 1.99626729e-01, 3.85183066e-01, 2.56101429e-01,
          3.85183066e-01, 6.95872724e-01, 6.95872724e-01, 1.50797486e-01,
          3.26754376e-02, 5.87934209e-03, 2.01290082e-02, 1.71812642e-02,
          3.42171383e-03, 4.64299088e-03, 5.36553562e-01, 5.36553562e-01,
          7.97593221e-02, 0., 1.26288712e-01, 5.36553562e-01,
          3.12121570e-01, 8.62302035e-02, 6.16985969e-02, 7.25336894e-02,
          1.67108513e-02, 7.96230286e-02, 1.73953623e-01, 1.61031574e-01,
          6.59106731e-01, 6.59106731e-01, 2.28942558e-01, 6.39563799e-02,
          5.31150818e-01, 5.31150818e-01, 6.94149807e-02, 3.09276599e-02,
          3.10995914e-02, 5.31150818e-01, 3.75154138e-01, 1.04929982e-02,
          2.71863434e-02, 7.61086419e-02, 4.64482568e-02, 1.81860719e-02,
          2.10446455e-02, 1.18383735e-01, 7.79501617e-01, 6.00396991e-01,
          2.43993029e-02, 2.80561335e-02, 4.60888803e-01, 2.13667929e-01,
          1.25756174e-01, 4.94221598e-02, 2.90293723e-01, 6.36888444e-01,
          3.32208633e-01, 1.43550128e-01, 3.10556084e-01, 5.31150818e-01,
          5.31150818e-01, 6.94149807e-02, 3.09276599e-02, 3.10995914e-02,
          5.31150818e-01, 3.75154138e-01, 1.04929982e-02, 2.71863434e-02,
          7.61086419e-02, 4.64482568e-02, 1.81860719e-02, 2.10446455e-02,
          1.18383735e-01, 7.79501617e-01, 6.00396991e-01, 2.43993029e-02,
          2.80561335e-02, 4.60888803e-01, 2.13667929e-01, 1.25756174e-01,
          4.94221598e-02, 2.90293723e-01, 6.36888444e-01, 3.32208633e-01,
          1.43550128e-01, 3.10556084e-01, 3.09762936e-02, 3.21913473e-02,
          2.68848184e-02, 4.25170846e-02, 2.87756950e-01, 8.54044616e-01,
          4.17935431e-01, 4.84016677e-03, 7.85126444e-03, 1.34341540e-02,
          7.79975671e-03, 8.66955295e-02, 3.61151725e-01, 6.07415736e-01,
          6.07415736e-01, 3.39141607e-01, 5.15114218e-02, 1.29927117e-02,
          1.71760648e-01, 4.77127522e-01, 4.77127522e-01, 4.77127522e-01,
          4.77127522e-01, 1.94706336e-01, 1.01415463e-01, 7.22805858e-02,
          4.13526781e-02, 3.76290917e-01, 8.50911587e-02, 9.27048456e-03,
          1.07273616e-01, 5.29047668e-01, 5.29047668e-01, 2.44549289e-01,
          1.52813837e-01, 4.37433690e-01, 4.77575511e-01, 4.77575511e-01,
          1.60651878e-01, 3.07708502e-01, 4.77575511e-01, 2.45451331e-01,
          1.15925588e-01, 1.17983334e-01, 3.20774436e-01, 6.73118532e-01,
          6.73118532e-01, 2.14069501e-01, 1.85095072e-01, 7.75467008e-02,
          1.72609612e-02, 1.96431205e-02, 5.40003600e-03, 1.70546509e-02 ]
      - [ 2.61654884e-01, 3.42477530e-01, 3.42477530e-01, 3.42477530e-01,
          3.42477530e-01, 3.42477530e-01, 3.27229142e-01, 3.42477530e-01,
          3.42477530e-01, 3.62917989e-01, 2.09065169e-01, 3.62917989e-01,
          2.69167721e-01, 3.62917989e-01, 3.62917989e-01, 3.62917989e-01,
          2.99929589e-01, 3.62917989e-01, 3.32778692e-01, 3.32778692e-01,
          3.32778692e-01, 3.32778692e-01, 3.32778692e-01, 3.32778692e-01,
          3.32778692e-01, 3.32778692e-01, 3.32778692e-01, 3.32778692e-01,
          3.32778692e-01, 3.32778692e-01, 3.32778692e-01, 3.32778692e-01,
          3.32778692e-01, 3.32778692e-01, 3.32778692e-01, 3.32778692e-01,
          3.36963952e-01, 3.36963952e-01, 3.36963952e-01, 3.36963952e-01,
          2.97111958e-01, 3.36963952e-01, 3.36963952e-01, 3.36963952e-01,
          3.36963952e-01, 3.59458417e-01, 2.64286995e-01, 3.59458417e-01,
          3.59458417e-01, 2.30320528e-01, 3.13450992e-01, 3.59458417e-01,
          3.59458417e-01, 3.59458417e-01, 3.43501747e-01, 3.43501747e-01,
          3.43501747e-01, 3.43501747e-01, 2.76706040e-01, 3.21413994e-01,
          3.29748541e-01, 3.43501747e-01, 3.43501747e-01, 3.53418052e-01,
          3.53418052e-01, 2.67362088e-01, 3.27601016e-01, 2.95649439e-01,
          3.53418052e-01, 3.25167477e-01, 3.53418052e-01, 3.53418052e-01,
          2.84298450e-01, 3.50942731e-01, 3.50942731e-01, 3.50942731e-01,
          2.31392205e-01, 3.50942731e-01, 3.50942731e-01, 3.50942731e-01,
          3.50942731e-01, 3.43501747e-01, 3.43501747e-01, 3.43501747e-01,
          3.43501747e-01, 2.76706040e-01, 3.21413994e-01, 3.29748541e-01,
          3.43501747e-01, 3.43501747e-01, 3.53418052e-01, 3.53418052e-01,
          2.67362088e-01, 3.27601016e-01, 2.95649439e-01, 3.53418052e-01,
          3.25167477e-01, 3.53418052e-01, 3.53418052e-01, 2.84298450e-01,
          3.50942731e-01, 3.50942731e-01, 3.50942731e-01, 2.31392205e-01,
          3.50942731e-01, 3.50942731e-01, 3.50942731e-01, 3.50942731e-01,
          3.36571902e-01, 3.36571902e-01, 3.36571902e-01, 3.36571902e-01,
          3.36571902e-01, 3.36571902e-01, 3.36571902e-01, 3.36571902e-01,
          3.00652325e-01, 3.08621913e-01, 3.63570839e-01, 3.18579614e-01,
          3.63570839e-01, 3.63570839e-01, 3.63570839e-01, 3.63570839e-01,
          3.20844203e-01, 1.89122453e-01, 3.40164244e-01, 3.40164244e-01,
          3.40164244e-01, 2.66284794e-01, 3.40164244e-01, 3.40164244e-01,
          3.40164244e-01, 3.40164244e-01, 3.40164244e-01, 2.63289750e-01,
          3.61280054e-01, 3.61280054e-01, 2.99599767e-01, 3.61280054e-01,
          3.61280054e-01, 3.61280054e-01, 3.61280054e-01, 2.32742757e-01,
          3.33541781e-01, 3.33541781e-01, 3.33541781e-01, 3.33541781e-01,
          3.33541781e-01, 3.33541781e-01, 3.26598376e-01, 3.33541781e-01,
          3.33541781e-01, 3.37784410e-01, 3.37784410e-01, 3.37784410e-01,
          2.89548904e-01, 3.37784410e-01, 3.37784410e-01, 3.37784410e-01,
          3.37784410e-01, 3.37784410e-01, 3.32778692e-01, 3.32778692e-01,
          3.32778692e-01, 3.32778692e-01, 3.32778692e-01, 3.32778692e-01,
          3.32778692e-01, 3.32778692e-01, 3.32778692e-01, 2.98154563e-01,
          2.86466658e-01, 3.43430012e-01, 3.43430012e-01, 3.43430012e-01,
          3.43430012e-01, 3.43430012e-01, 3.43430012e-01, 3.43430012e-01,
          1.59989402e-01, 7.96764195e-02, 1.26439273e-01, 3.87752652e-01,
          3.99607956e-01, 3.99607956e-01, 3.99607956e-01, 3.99607956e-01,
          3.98720205e-01, 3.59458417e-01, 2.64286995e-01, 3.59458417e-01,
          3.59458417e-01, 2.30320528e-01, 3.13450992e-01, 3.59458417e-01,
          3.59458417e-01, 3.59458417e-01, 3.36809278e-01, 3.36809278e-01,
          3.36809278e-01, 3.36809278e-01, 2.98514456e-01, 3.36809278e-01,
          3.36809278e-01, 3.36809278e-01, 3.36809278e-01, 3.96631062e-01,
          3.96631062e-01, 2.59286255e-01, 2.10749537e-01, 1.62282094e-01,
          2.67350882e-01, 3.96631062e-01, 3.96631062e-01, 3.96631062e-01,
          2.84298450e-01, 3.50942731e-01, 3.50942731e-01, 3.50942731e-01,
          2.31392205e-01, 3.50942731e-01, 3.50942731e-01, 3.50942731e-01,
          3.50942731e-01, 3.34164590e-01, 3.34164590e-01, 3.34164590e-01,
          3.34164590e-01, 3.21454972e-01, 3.34164590e-01, 3.34164590e-01,
          3.34164590e-01, 3.34164590e-01, 2.01241121e-01, 1.64544180e-01,
          3.38081658e-01, 3.44842196e-01, 3.72957319e-01, 3.72957319e-01,
          3.72957319e-01, 3.72957319e-01, 3.72957319e-01, 2.84298450e-01,
          3.50942731e-01, 3.50942731e-01, 3.50942731e-01, 2.31392205e-01,
          3.50942731e-01, 3.50942731e-01, 3.50942731e-01, 3.50942731e-01,
          3.34164590e-01, 3.34164590e-01, 3.34164590e-01, 3.34164590e-01,
          3.21454972e-01, 3.34164590e-01, 3.34164590e-01, 3.34164590e-01,
          3.34164590e-01, 2.01241121e-01, 1.64544180e-01, 3.38081658e-01,
          3.44842196e-01, 3.72957319e-01, 3.72957319e-01, 3.72957319e-01,
          3.72957319e-01, 3.72957319e-01, 3.40164244e-01, 3.40164244e-01,
          3.40164244e-01, 2.66284794e-01, 3.40164244e-01, 3.40164244e-01,
          3.40164244e-01, 3.40164244e-01, 3.40164244e-01, 3.32778692e-01,
          3.32778692e-01, 3.32778692e-01, 3.32778692e-01, 3.32778692e-01,
          3.32778692e-01, 3.32778692e-01, 3.32778692e-01, 3.32778692e-01,
          2.15512559e-01, 3.85749280e-01, 3.85749280e-01, 1.22072265e-01,
          3.85749280e-01, 3.85749280e-01, 3.85749280e-01, 3.85749280e-01,
          2.04899520e-01, 3.37784410e-01, 3.37784410e-01, 3.37784410e-01,
          2.89548904e-01, 3.37784410e-01, 3.37784410e-01, 3.37784410e-01,
          3.37784410e-01, 3.37784410e-01, 3.48211616e-01, 3.48211616e-01,
          3.31834733e-01, 2.66139477e-01, 3.48211616e-01, 3.48211616e-01,
          3.48211616e-01, 3.48211616e-01, 2.96763241e-01, 3.03759843e-01,
          4.37836319e-01, 2.38152221e-01, 1.63385138e-01, 4.37836319e-01,
          4.37836319e-01, 4.37836319e-01, 1.30878672e-01, 1.89772099e-01 ]
      - [ 4.72267956e-01, 1.56682543e-02, 2.50160322e-02, 4.44346890e-02,
          4.72267956e-01, 4.72267956e-01, 2.65747577e-01, 1.72242135e-01,
          4.72267956e-01, 4.29241538e-01, 8.91351476e-02, 7.62488618e-02,
          3.54830660e-02, 6.05234563e-01, 6.05234563e-01, 4.94538399e-05,
          1.67474069e-03, 2.49138504e-01, 3.33989501e-01, 6.72094375e-02,
          6.87360540e-02, 5.30037321e-02, 6.53424799e-01, 6.53424799e-01,
          2.44588708e-04, 1.53745851e-02, 1.25347331e-01, 1.94539919e-01,
          3.63977067e-02, 1.92567194e-03, 2.80075264e-03, 3.23090225e-01,
          4.81764615e-01, 4.81764615e-01, 4.81764615e-01, 3.94116044e-01,
          4.10887241e-01, 4.05680239e-01, 2.44334161e-01, 1.68338403e-01,
          4.10887241e-01, 4.10887241e-01, 1.10766664e-01, 3.30225259e-01,
          3.39822054e-01, 5.29058337e-01, 3.82317454e-01, 2.69566864e-01,
          4.04815041e-02, 2.01731518e-01, 1.30261872e-02, 7.26345647e-03,
          4.16558832e-01, 5.29058337e-01, 7.82939643e-02, 1.84564874e-01,
          1.90209255e-01, 3.22089195e-02, 8.02441984e-02, 1.31501317e-01,
          6.33447349e-01, 6.33447349e-01, 3.00036073e-01, 4.17037129e-01,
          3.97926450e-01, 2.00605839e-01, 5.55481650e-02, 2.10825223e-02,
          2.38698453e-01, 4.64338630e-01, 4.64338630e-01, 3.62113357e-01,
          5.15555799e-01, 3.76843810e-01, 3.34131688e-01, 2.35098734e-01,
          4.42458123e-01, 9.43700597e-02, 2.41903126e-01, 2.41313607e-01,
          3.14169407e-01, 7.82939643e-02, 1.84564874e-01, 1.90209255e-01,
          3.22089195e-02, 8.02441984e-02, 1.31501317e-01, 6.33447349e-01,
          6.33447349e-01, 3.00036073e-01, 4.17037129e-01, 3.97926450e-01,
          2.00605839e-01, 5.55481650e-02, 2.10825223e-02, 2.38698453e-01,
          4.64338630e-01, 4.64338630e-01, 3.62113357e-01, 5.15555799e-01,
          3.76843810e-01, 3.34131688e-01, 2.35098734e-01, 4.42458123e-01,
          9.43700597e-02, 2.41903126e-01, 2.41313607e-01, 3.14169407e-01,
          1.17815044e-02, 1.05494305e-01, 5.24740458e-01, 9.63920876e-02,
          3.28126773e-02, 9.06916708e-02, 5.84260583e-01, 5.84260583e-01,
          7.89404064e-02, 2.43018530e-02, 3.26313823e-01, 2.96562672e-01,
          2.39496659e-02, 5.19282967e-02, 1.65531531e-01, 6.12398326e-01,
          6.12398326e-01, 1.34649247e-01, 1.83958188e-01, 2.51500219e-01,
          2.10830480e-01, 2.13362306e-01, 3.71169299e-01, 3.98491263e-01,
          4.26096201e-01, 4.26096201e-01, 3.86005044e-01, 5.04551381e-02,
          6.36435449e-02, 5.04378200e-01, 3.27590913e-01, 1.17923401e-01,
          1.41597971e-01, 5.17645776e-01, 5.17645776e-01, 2.38014013e-01,
          3.30734164e-01, 3.14791389e-02, 2.46032495e-02, 1.42678740e-02,
          1.75381750e-01, 3.79333407e-01, 5.67382276e-01, 5.67382276e-01,
          2.54266858e-01, 5.16920924e-01, 5.85855432e-02, 3.82821374e-02,
          6.19658977e-02, 5.16920924e-01, 4.44381058e-01, 7.11045489e-02,
          2.72913706e-02, 4.98407722e-01, 3.33989501e-01, 6.72094375e-02,
          6.87360540e-02, 5.30037321e-02, 6.53424799e-01, 6.53424799e-01,
          2.44588708e-04, 1.53745851e-02, 1.25347331e-01, 2.37019360e-01,
          2.94458628e-01, 4.86038268e-01, 3.73221636e-01, 4.86038268e-01,
          4.86038268e-01, 3.81029025e-02, 1.32339932e-02, 5.13871163e-02,
          7.00722411e-02, 2.86811531e-01, 4.65061635e-01, 4.65061635e-01,
          4.65061635e-01, 2.68846482e-01, 2.13677928e-01, 3.64222437e-01,
          9.34997126e-02, 5.29058337e-01, 3.82317454e-01, 2.69566864e-01,
          4.04815041e-02, 2.01731518e-01, 1.30261872e-02, 7.26345647e-03,
          4.16558832e-01, 5.29058337e-01, 3.60711366e-01, 6.15370870e-01,
          6.15370870e-01, 1.98290959e-01, 0., 1.25894649e-03,
          6.21583732e-03, 9.33489427e-02, 2.41468117e-01, 1.33186683e-01,
          5.44452548e-01, 5.44452548e-01, 4.34319943e-01, 3.26769888e-01,
          1.04595482e-01, 9.41659883e-02, 2.55846500e-01, 5.73587790e-02,
          5.15555799e-01, 3.76843810e-01, 3.34131688e-01, 2.35098734e-01,
          4.42458123e-01, 9.43700597e-02, 2.41903126e-01, 2.41313607e-01,
          3.14169407e-01, 2.18481436e-01, 6.08954847e-01, 6.08954847e-01,
          3.67258221e-01, 1.91300839e-01, 7.29759783e-02, 7.73300231e-02,
          6.01552725e-02, 1.34666100e-01, 7.01004546e-03, 4.74259943e-01,
          4.98609841e-01, 4.44867194e-01, 3.85770351e-01, 3.00368279e-01,
          2.74592429e-01, 5.62565438e-02, 7.69694597e-02, 5.15555799e-01,
          3.76843810e-01, 3.34131688e-01, 2.35098734e-01, 4.42458123e-01,
          9.43700597e-02, 2.41903126e-01, 2.41313607e-01, 3.14169407e-01,
          2.18481436e-01, 6.08954847e-01, 6.08954847e-01, 3.67258221e-01,
          1.91300839e-01, 7.29759783e-02, 7.73300231e-02, 6.01552725e-02,
          1.34666100e-01, 7.01004546e-03, 4.74259943e-01, 4.98609841e-01,
          4.44867194e-01, 3.85770351e-01, 3.00368279e-01, 2.74592429e-01,
          5.62565438e-02, 7.69694597e-02, 1.83958188e-01, 2.51500219e-01,
          2.10830480e-01, 2.13362306e-01, 3.71169299e-01, 3.98491263e-01,
          4.26096201e-01, 4.26096201e-01, 3.86005044e-01, 2.86481589e-01,
          4.99847323e-01, 4.99847323e-01, 4.99847323e-01, 3.66011411e-01,
          8.74579847e-02, 1.12996936e-01, 4.32226434e-02, 8.45233947e-02,
          1.85684338e-01, 4.66913790e-01, 4.66913790e-01, 4.66791511e-01,
          4.66913790e-01, 2.27514550e-01, 6.59122765e-02, 3.34156379e-02,
          1.78084284e-01, 5.16920924e-01, 5.85855432e-02, 3.82821374e-02,
          6.19658977e-02, 5.16920924e-01, 4.44381058e-01, 7.11045489e-02,
          2.72913706e-02, 4.98407722e-01, 5.69252312e-01, 8.41721892e-02,
          2.61602905e-02, 5.57011627e-02, 5.69252312e-01, 2.29910105e-01,
          2.06369720e-02, 1.82746761e-02, 5.30781329e-01, 6.80892766e-01,
          1.86353460e-01, 5.14533930e-02, 5.60080111e-02, 4.96437699e-01,
          1.72698468e-01, 4.28722613e-02, 7.43216183e-03, 4.59246457e-01 ]
      - [ 4.75274533e-01, 1.49727002e-01, 1.54816471e-02, 2.42497921e-02,
          4.75274533e-01, 4.75274533e-01, 1.12329431e-01, 2.36316845e-01,
          4.75274533e-01, 5.47163785e-01, 1.23188443e-01, 9.00456011e-02,
          4.01468314e-02, 5.47163785e-01, 5.47163785e-01, 0.,
          2.40349735e-04, 2.67349899e-01, 4.39195961e-01, 1.33117333e-01,
          1.13588154e-01, 4.68132868e-02, 6.09386563e-01, 6.09386563e-01,
          1.05901840e-04, 2.48718471e-03, 1.59681872e-01, 3.82739246e-01,
          2.02923149e-01, 7.26206526e-02, 8.57661758e-03, 3.26615721e-01,
          4.98465985e-01, 4.98465985e-01, 4.25522894e-01, 1.31616637e-01,
          4.75322932e-01, 4.02468741e-01, 9.27928165e-02, 7.92455450e-02,
          4.75322932e-01, 4.75322932e-01, 8.67876858e-02, 5.75704686e-02,
          3.60192776e-01, 5.33440530e-01, 2.98338532e-01, 1.03210919e-01,
          3.84714812e-01, 3.56420606e-01, 1.68329179e-01, 1.28699839e-01,
          7.71835148e-02, 5.33440530e-01, 1.23558931e-01, 5.90129793e-02,
          1.81519985e-01, 7.90090561e-02, 1.95480362e-01, 3.57299358e-01,
          5.72888970e-01, 5.72888970e-01, 3.37726444e-01, 9.73912850e-02,
          1.70743033e-01, 4.15648758e-01, 4.15648758e-01, 4.15648758e-01,
          2.85531700e-01, 4.15648758e-01, 4.15648758e-01, 1.08912103e-01,
          4.78892893e-01, 4.77649629e-01, 1.87612280e-01, 4.78892893e-01,
          4.12688702e-01, 9.04578418e-02, 1.63054198e-01, 1.50644600e-01,
          2.13113889e-01, 1.23558931e-01, 5.90129793e-02, 1.81519985e-01,
          7.90090561e-02, 1.95480362e-01, 3.57299358e-01, 5.72888970e-01,
          5.72888970e-01, 3.37726444e-01, 9.73912850e-02, 1.70743033e-01,
          4.15648758e-01, 4.15648758e-01, 4.15648758e-01, 2.85531700e-01,
          4.15648758e-01, 4.15648758e-01, 1.08912103e-01, 4.78892893e-01,
          4.77649629e-01, 1.87612280e-01, 4.78892893e-01, 4.12688702e-01,
          9.04578418e-02, 1.63054198e-01, 1.50644600e-01, 2.13113889e-01,
          7.52588138e-02, 1.30101204e-01, 5.47832012e-01, 2.26555064e-01,
          5.12691215e-02, 2.51864232e-02, 5.47832012e-01, 5.47832012e-01,
          1.30342156e-01, 1.26753584e-01, 4.42988753e-01, 3.90568882e-01,
          3.88292819e-01, 1.24510333e-01, 4.96318266e-02, 4.65890467e-01,
          4.65890467e-01, 1.66288182e-01, 4.27500576e-01, 4.27500576e-01,
          3.36702466e-01, 2.95593530e-01, 4.27500576e-01, 4.27500576e-01,
